tree
version=v4
num_class=1
num_tree_per_iteration=1
label_index=0
max_feature_idx=9
objective=binary sigmoid:1
feature_names=annual_inc term grade sub_grade emp_length home_ownership purpose dti loan_amnt int_rate
feature_infos=[1200:8700000] [45648:94352] [620:41553] [47:8991] [5441:47173] [1:69497] [1:80357] [0:672.51999999999998] [1000:35000] [5.3200000000000003:28.989999999999998]
tree_sizes=3346 3448 3454 3457 3451 3456 3460 3469 3450 3455 3465 3466 3474 3475 3452 3460 3463 3466 3475 3478 3477 3479 3498 3481 3478 3480 3480 3485 3489 3478 3489 3494 3499 3485 3491 3488 3487 3487 3476 3472 3491 3490 3495 3488 3481 3472 3479 3459 3480 3477 3497 3457 3462 3444 3456 3481 3446 3470 3475 3485 3423 3462 3483 3461 3434 3472 3461 3416 3495 3446 3404 3452 3465 3408 3468 3391 3464 3416 3450 3477 3481 3425 3411 3445 3449 3453 3406

Tree=0
num_leaves=31
num_cat=0
split_feature=9 9 9 3 2 2 3 5 5 9 7 7 7 8 5 7 5 5 7 8 7 7 7 4 5 9 5 1 8 8
split_gain=6645.09 1375.46 938.087 241.783 237.688 162.5 129.49 89.8735 88.0947 76.5166 72.8559 66.4748 51.9754 48.3983 35.1741 34.065 34.0838 33.9511 28.7621 28.4887 27.2057 27.0522 26.9174 26.6151 26.2483 24.9198 24.4743 24.2272 26.7712 20.2697
threshold=12.785000000000002 17.715000000000003 9.4650000000000016 1996.0000000000002 32270.500000000004 40877.000000000007 6718.5000000000009 62164.000000000007 62164.000000000007 24.115000000000002 19.285000000000004 15.475000000000003 15.085000000000003 32012.500000000004 62164.000000000007 13.105000000000002 62164.000000000007 62164.000000000007 30.135000000000002 6012.5000000000009 16.235000000000003 18.135000000000002 18.895000000000003 10102.000000000002 62164.000000000007 8.4350000000000023 62164.000000000007 70000.000000000015 21612.500000000004 4662.5000000000009
decision_type=2 2 2 2 2 2 2 2 2 2 2 2 2 2 2 2 2 2 2 2 2 2 2 2 2 2 2 2 2 2
left_child=2 4 6 9 8 11 -1 21 12 17 24 -4 19 14 -12 -7 -17 18 -3 -2 -10 -6 -9 -23 -5 -8 -11 28 -14 -20
right_child=1 3 5 10 7 15 25 22 20 26 13 -13 27 -15 -16 16 -18 -19 29 -21 -22 23 -24 -25 -26 -27 -28 -29 -30 -31
leaf_value=-1.5499040387294734 -1.5019522797967977 -1.4240617779522808 -1.514814611268374 -1.4552031067476976 -1.4908535520494917 -1.5278316405627408 -1.5381971193813886 -1.5071114420877363 -1.4930822795410317 -1.3774643578043719 -1.4297447005682724 -1.4979690060230166 -1.4392611784272722 -1.4763568742563546 -1.4500443909608793 -1.5117183448199933 -1.5229504344742135 -1.4379545545663694 -1.508920351011807 -1.4701724271139707 -1.4762651984990822 -1.4694681572337231 -1.4941780779211284 -1.4857436318067272 -1.4755203812754807 -1.5293662246549169 -1.4128203895048741 -1.4635563333675157 -1.4661781499467397 -1.3873582580609709
leaf_weight=2539.0182296186686 94.478557035326958 330.45177192986012 911.90405680239201 349.04991307854652 792.42959806323051 1080.9239635616541 2250.0775087326765 746.30620801448822 347.26449152827263 115.75483050942421 471.94642978906631 1636.7852062135935 301.58745686709881 95.96640832722187 389.51946821808815 1352.1592540740967 1349.4811217486858 373.3018891364336 3.5708431005477896 278.07940645515919 782.16342414915562 450.96772657334805 872.7735678255558 567.02012734115124 291.91642346978188 1238.6362005025148 84.807523638010025 511.96962954103947 133.16269062459469 86.444160059094429
leaf_count=17065 635 2221 6129 2346 5326 7265 15123 5016 2334 778 3172 11001 2027 645 2618 9088 9070 2509 24 1869 5257 3031 5866 3811 1962 8325 570 3441 895 581
internal_value=-1.50382 -1.4697 -1.5272 -1.43937 -1.48308 -1.51375 -1.54131 -1.49158 -1.47119 -1.42001 -1.45141 -1.504 -1.46241 -1.44268 -1.43892 -1.52033 -1.51733 -1.42698 -1.41724 -1.47823 -1.48144 -1.48393 -1.50014 -1.47853 -1.46446 -1.53506 -1.39241 -1.45619 -1.44751 -1.39218
internal_weight=20829.9 8470.93 12359 2592.73 5878.2 6331.25 6027.73 3429.5 2448.71 994.331 1598.4 2548.69 1319.28 957.432 861.466 3782.56 2701.64 793.769 420.467 372.558 1129.43 1810.42 1619.08 1017.99 640.966 3488.71 200.562 946.72 434.75 90.015
internal_count=140000 56934 83066 17426 39508 42553 40513 23050 16458 6683 10743 17130 8867 6435 5790 25423 18158 5335 2826 2504 7591 12168 10882 6842 4308 23448 1348 6363 2922 605
is_linear=0
shrinkage=1


Tree=1
num_leaves=31
num_cat=0
split_feature=9 9 9 9 3 2 9 5 5 5 7 7 8 9 7 2 7 7 7 4 8 0 7 5 7 7 5 3 0 3
split_gain=5954.26 1147.82 887.207 211.469 191.479 149.248 126.743 88.7748 73.3412 67.268 60.2095 44.7059 36.9866 36.0329 34.6983 34.2955 34.1841 33.2107 29.9541 29.3474 27.6101 28.2463 27.0746 25.5478 22.9258 21.8906 21.1221 20.5721 20.5696 18.7719
threshold=12.785000000000002 17.715000000000003 9.4650000000000016 15.690000000000001 882.00000000000011 40877.000000000007 6.9400000000000004 62164.000000000007 62164.000000000007 62164.000000000007 15.475000000000003 15.855000000000002 5612.5000000000009 18.370000000000001 18.135000000000002 40877.000000000007 20.075000000000003 23.955000000000002 15.855000000000002 10102.000000000002 7012.5000000000009 64000.500000000007 12.695000000000002 62164.000000000007 32.605000000000011 18.135000000000002 62164.000000000007 1996.0000000000002 35000.500000000007 201.50000000000003
decision_type=2 2 2 2 2 2 2 2 2 2 2 2 2 2 2 2 2 2 2 2 2 2 2 2 2 2 2 2 2 2
left_child=2 3 6 7 22 10 -1 14 11 12 -4 28 -5 -13 20 25 -9 -7 -10 -16 -2 -22 -3 -17 -14 -8 -19 -20 -6 -24
right_child=1 4 5 9 8 17 15 16 18 -11 -12 13 24 -15 19 23 -18 26 27 -21 21 -23 29 -25 -26 -27 -28 -29 -30 -31
leaf_value=-0.047703228814438815 -0.0017417640843867034 0.062759699551074924 -0.010524657428296006 0.021516281360998871 0.013746458341893537 -0.018708046750798037 -0.041828881000224305 -0.00078475694200860454 0.029550322743476083 0.023420992776137236 0.0055330454747054975 0.054355185018048424 0.044229139066967876 0.075182672439414636 0.034071000085325605 -0.022295446438003595 0.012311968769641978 -0.00080635085856404208 0.061336746852285122 0.018885676534012037 0.028777511221626147 0.0090190501575335216 0.12506876175130768 -0.032728771617349016 0.068128151534321252 -0.03057865771399847 -0.015325278924044864 0.043436098733103029 0.050735051032790884 0.091501702330156032
leaf_weight=1769.865978166461 236.89603281021118 72.80074867606163 905.52799884974957 160.37192261219025 43.034927517175674 2740.8834137171507 1002.167783498764 996.0037025809288 281.54841305315495 775.45162573456764 1642.8770864456892 332.06354457139969 651.45428164303303 554.33963370323181 571.64205101132393 1122.2761345207691 996.95926603674889 500.66270130872726 224.82417747378349 717.55890153348446 328.56458367407322 402.42775967717171 48.798868089914322 1229.5890893936157 118.61852359771729 760.51855525374413 501.3373015075922 561.00197511911392 296.87478686869144 284.3366484940052
leaf_count=12253 1579 461 6129 1060 279 18630 6907 6690 1847 5138 11001 2140 4260 3551 3754 7688 6645 3382 1450 4750 2184 2676 306 8424 772 5241 3411 3662 1925 1805
internal_value=-2.04046e-05 0.0316844 -0.022559 0.019426 0.0587292 -0.00950579 -0.0365148 0.013457 0.0531272 0.0342969 -0.000172758 0.0614685 0.0433611 0.0673803 0.0202474 -0.0317021 0.00576675 -0.0158603 0.0435438 0.025619 0.0130926 0.0179 0.0903823 -0.0277501 0.0479104 -0.0369749 -0.0080707 0.0485575 0.046052 0.0964187
internal_weight=20831.3 8655.57 12175.7 5955.95 2699.62 6291.29 5884.42 4250.05 2293.69 1705.9 2548.41 1226.31 930.445 886.403 2257.09 4114.55 1992.96 3742.88 1067.37 1289.2 967.888 730.992 405.936 2351.87 770.073 1762.69 1002 785.826 339.91 333.136
internal_count=140000 56934 83066 39508 17426 42553 40513 28278 14854 11230 17130 7895 6092 5691 14943 28260 13335 25423 6959 8504 6439 4860 2572 16112 5032 12148 6793 5112 2204 2111
is_linear=0
shrinkage=0.05


Tree=2
num_leaves=31
num_cat=0
split_feature=9 9 9 2 3 2 9 5 5 7 7 3 7 8 9 7 5 7 8 8 7 7 5 7 4 5 5 5 5 0
split_gain=5343.67 966.66 838.593 183.83 160.446 136.993 123.762 70.2198 63.1352 54.5299 52.909 46.3606 40.1947 37.5221 33.6267 31.2347 30.5887 25.9469 25.1745 22.936 22.6068 22.4319 21.9753 21.6758 21.2072 19.6886 18.5685 18.4741 17.7821 17.447
threshold=12.785000000000002 17.715000000000003 9.4650000000000016 32270.500000000004 1996.0000000000002 40877.000000000007 6.9400000000000004 62164.000000000007 62164.000000000007 15.475000000000003 19.285000000000004 626.00000000000011 15.085000000000003 32012.500000000004 8.4350000000000023 13.105000000000002 62164.000000000007 28.775000000000002 4987.5000000000009 4987.5000000000009 16.235000000000003 18.135000000000002 62164.000000000007 18.895000000000003 10102.000000000002 35251.000000000007 62164.000000000007 62164.000000000007 62164.000000000007 44013.500000000007
decision_type=2 2 2 2 2 2 2 2 2 2 2 2 2 2 2 2 2 2 2 2 2 2 2 2 2 2 2 2 2 2
left_child=2 3 6 8 11 9 -1 18 12 26 27 28 19 22 21 -7 -17 -13 -5 -2 -10 -8 29 -9 -20 -14 -4 -6 -3 -12
right_child=1 4 5 7 10 15 14 23 20 -11 13 17 25 -15 -16 16 -18 -19 24 -21 -22 -23 -24 -25 -26 -27 -28 -29 -30 -31
leaf_value=-0.046798013414994594 -0.0049695909721391394 0.095689711052839077 -0.0035697413716486107 0.0014056185726898649 0.040790350524372215 -0.0225187007374026 -0.037606243134867427 -0.0031002055751791109 0.0092792554070499807 0.0052375134531000124 0.050283811639156697 0.057089790909207072 0.027569222285221618 0.022349753825194746 -0.023735189679193813 -0.0070015827291752125 -0.01773908651053336 0.078084478019087231 0.026030661328025791 0.027464873998307507 0.024454375054844747 -0.028624181263089299 0.045901056117196838 0.0084789357091107093 0.014555986374115114 0.044628002497550917 -0.018010344122280277 0.02416296468367745 0.071348620103829308 0.069029855201034315
leaf_weight=1715.2888341546059 65.688140824437141 174.73803083598614 494.69858038425446 216.96278212964535 371.54526767134666 1051.6519375890493 1610.8851454406977 744.3690619468689 352.97366881370544 1648.6476684361696 209.64224736392498 591.73775245249271 215.73856607079506 100.75138093531132 1196.9054631143808 1335.0315345525742 1318.1818376332521 195.8812597244978 710.66413450241089 320.18871860206127 805.46166996657848 1222.730578020215 413.77833473682404 884.33444900810719 929.08094517886639 783.1678034812212 404.74004292488098 303.52159199118614 131.49403341114521 304.2583419829607
leaf_count=12253 437 1036 3371 1427 2346 7265 11355 5016 2334 11001 1294 3660 1374 645 8325 9088 9070 1193 4625 2067 5257 8580 2618 5866 6116 4989 2758 1962 794 1878
internal_value=-3.73276e-05 0.0294943 -0.02176 0.0182226 0.0537862 -0.00908901 -0.0355494 0.0107644 0.0284438 -0.00016508 0.0441906 0.0687297 0.0356492 0.0513298 -0.0307622 -0.0152266 -0.0123362 0.0623112 0.0174113 0.0219435 0.0198305 -0.0337304 0.0544772 0.0031869 0.0195291 0.0409437 -0.0100679 0.0333144 0.0852378 0.0613825
internal_weight=20824.7 8825.98 11998.8 6028.63 2797.35 6252.95 5745.81 3485.41 2543.22 2548.09 1703.5 1093.85 1384.78 1028.43 4030.52 3704.87 2653.21 787.619 1856.71 385.877 1158.44 2833.62 927.679 1628.7 1639.75 998.906 899.439 675.067 306.232 513.901
internal_count=140000 56934 83066 39508 17426 42553 40513 23050 16458 17130 10743 6683 8867 6435 28260 25423 18158 4853 12168 2504 7591 19935 5790 10882 10741 6363 6129 4308 1830 3172
is_linear=0
shrinkage=0.05


Tree=3
num_leaves=31
num_cat=0
split_feature=9 3 9 3 9 5 7 9 5 8 8 9 5 7 7 7 5 8 0 7 8 3 7 5 8 9 7 0 8 7
split_gain=4816.21 968.435 673.672 254.914 128.32 82.2034 79.058 71.5931 46.3708 46.1729 38.1167 38.014 35.7727 32.7805 32.6226 31.9961 30.3181 28.5401 30.0648 27.3925 24.7137 23.5914 21.6841 21.3391 20.3754 19.9828 18.4723 18.4415 18.3566 18.317
threshold=12.640000000000002 5139.0000000000009 8.4350000000000023 1996.0000000000002 11.105000000000002 62164.000000000007 18.135000000000002 6.9400000000000004 62164.000000000007 5612.5000000000009 25012.500000000004 24.115000000000002 62164.000000000007 27.565000000000001 22.155000000000005 23.955000000000002 62164.000000000007 6512.5000000000009 65005.000000000007 19.285000000000004 3012.5000000000005 3598.0000000000005 18.135000000000002 62164.000000000007 7312.5000000000009 14.405000000000003 5.5250000000000012 104026.00000000001 4987.5000000000009 15.475000000000003
decision_type=2 2 2 2 2 2 2 2 2 2 2 2 2 2 2 2 2 2 2 2 2 2 2 2 2 2 2 2 2 2
left_child=2 3 7 11 15 9 12 -1 14 -5 16 23 17 -11 -6 27 20 -3 -19 -7 -8 -21 -9 24 -2 -22 -13 -4 -23 -10
right_child=1 6 4 5 8 19 10 22 29 13 -12 26 -14 -15 -16 -17 -18 18 -20 21 25 28 -24 -25 -26 -27 -28 -29 -30 -31
leaf_value=-0.045911151394893594 0.034110824428944211 -0.004978927581939332 -0.019297759692588273 0.02261262540816341 -0.004297323870476562 0.018914579764192786 -0.00070456768018822185 -0.036651564746670133 -0.019422353989990555 0.040669353708182053 0.0014103476042350818 0.0074076356156294633 -0.0035330714413624406 0.055765296304410378 0.010699466760174615 -0.010644085727937026 0.012049581592091674 0.022749012023807288 0.0045631513843611329 0.037916016960596828 0.020567251645144748 -0.021377481395791514 -0.027725048371866352 0.049746042350692049 0.068590925006708645 0.033683351235237094 0.083122053824068204 -0.029169199484653019 0.024632036926264398 -0.0073210584255806177
leaf_weight=1662.3534298986197 47.545469358563423 269.93229115009308 2154.370477989316 254.68065378069878 1016.6506557166576 627.8882272541523 101.50639836490154 1571.2212681174278 476.17427907884121 1128.3502108007669 390.25292004644871 8.3484995663166028 1007.3510671406984 527.83834414184093 563.69150105118752 907.62989723682404 1119.3144492655993 448.6018478423357 460.61234179139137 636.91633163392544 878.43660368025303 23.394837230443954 1199.8559690415859 418.78075109422207 433.47357086837292 433.79734227061272 229.70649179816246 606.26715336740017 295.55477701127529 910.86375916004181
leaf_count=12253 282 1797 15051 1603 6940 4042 658 11355 3303 6944 2551 48 6793 3195 3782 6288 7373 2916 3024 3970 5691 150 8580 2509 2544 2751 1300 4247 1895 6165
internal_value=-5.13378e-05 0.0255875 -0.0226169 0.042144 -0.0125345 0.0354513 0.0105775 -0.0377077 -0.00480376 0.0424327 0.0159562 0.062699 0.00338627 0.0454805 0.00105187 -0.0187881 0.0181972 0.0092975 0.013536 0.0270279 0.0230645 0.0323574 -0.0327864 0.0579983 0.0651828 0.0249032 0.0804668 -0.0214656 0.0212573 -0.0114755
internal_weight=20811.4 9742.28 11069.1 4632.48 6635.65 3494.62 5109.81 4433.43 2967.38 1910.87 2923.31 1137.85 2186.5 1656.19 1580.34 3668.27 2533.05 1179.15 909.214 1583.75 1413.74 955.866 2771.08 899.8 481.019 1312.23 238.055 2760.64 318.95 1387.04
internal_count=140000 62036 77964 28482 45776 21799 33554 32188 20190 11742 19024 6683 14530 10139 10722 25586 16473 7737 5940 10057 9100 6015 19935 5335 2826 8442 1348 19298 2045 9468
is_linear=0
shrinkage=0.05


Tree=4
num_leaves=31
num_cat=0
split_feature=9 3 9 3 9 7 9 3 7 5 5 5 5 9 7 8 0 8 7 8 8 7 8 8 7 8 4 4 7 8
split_gain=4349.54 911.887 574.673 216.502 92.5924 74.0435 70.234 62.8195 52.1492 43.2663 41.5983 35.6089 34.7802 30.4653 29.8947 28.749 27.1951 25.1256 23.6839 23.335 25.318 22.6456 21.8519 21.5506 21.0656 19.5642 18.9797 20.946 18.9487 17.4593
threshold=12.440000000000001 5139.0000000000009 8.4350000000000023 2751.5000000000005 11.105000000000002 20.075000000000003 6.9400000000000004 882.00000000000011 11.425000000000002 62164.000000000007 62164.000000000007 62164.000000000007 62164.000000000007 14.405000000000003 23.955000000000002 4012.5000000000005 140080.00000000003 6512.5000000000009 22.155000000000005 26012.500000000004 4987.5000000000009 27.565000000000001 6012.5000000000009 24012.500000000004 17.005000000000006 4662.5000000000009 8797.5000000000018 8453.0000000000018 13.105000000000002 26012.500000000004
decision_type=2 2 2 2 2 2 2 2 2 2 2 2 2 2 2 2 2 2 2 2 2 2 2 2 2 2 2 2 2 2
left_child=2 3 6 7 14 9 -1 28 -5 17 22 18 21 19 -4 -12 -14 -3 -6 20 -7 -9 -10 -24 -8 -11 27 -22 -2 -17
right_child=1 5 4 8 11 13 24 12 10 25 15 -13 16 -15 -16 29 -18 -19 -20 -21 26 -23 23 -25 -26 -27 -28 -29 -30 -31
leaf_value=-0.045040344929213577 0.046764105766901744 -0.0024722091171304438 -0.020689928409800683 0.013416134248995085 -0.0049182322476527636 -0.0033630708590281127 -0.036134764890812514 0.0481096581901303 0.023818918699452126 -0.025030890002877421 -0.013480461902835569 -0.011969258542694551 0.041151113578316939 0.022958614906593896 -0.010184097019855357 0.03103386441103503 0.0017560777832947166 0.01278291058419829 0.0089946554315565551 -0.0033205964211878501 0.018500440705299236 0.066011780447758184 0.04531171414665134 0.027660180687457223 -0.027315367745049862 -0.001397826038378031 0.011560564351024608 0.043420275711979622 0.072579198094311514 0.015952354592412767
leaf_weight=1611.0780334174633 87.589205771684647 350.14195592701435 2721.9731498062611 405.32313406467438 869.12338589131832 193.93039828538895 1396.4262952506542 569.55326737463474 201.45237778127193 94.39228680729866 45.118805438280106 1165.7098116874695 651.08842301368713 849.60904631018639 901.35779446363449 774.41202035546303 46.967554911971092 1177.9895169734955 472.00814755260944 231.02777563035488 437.86018328368664 256.07393197715282 859.760159984231 216.44754596054554 1314.3508147448301 1211.8749093711376 943.20175616443157 104.43627291917801 377.22843712568283 255.12064555287361
leaf_count=12253 492 2330 19298 2543 5960 1267 10344 3325 1243 637 286 8038 3905 5395 6288 4840 285 7637 3151 1517 2824 1454 5127 1302 9591 8175 6140 673 2080 1600
internal_value=-6.30897e-05 0.0229282 -0.0228093 0.0390487 -0.0129652 0.00925227 -0.0367724 0.0516245 0.0299804 0.003576 0.0328346 -0.00557741 0.046716 0.0150814 -0.0180764 0.0255846 0.0385005 0.00928749 -2.16235e-05 0.0115783 0.0136278 0.0536621 0.0389325 0.0417616 -0.0318586 -0.00310558 0.015846 0.0232995 0.0677147 0.0272966
internal_weight=20792.6 10340.6 10452 4746.14 6130.17 5594.46 4321.86 1988.5 2757.63 2834.4 2352.31 2506.84 1523.68 2760.07 3623.33 1074.65 698.056 1528.13 1341.13 1910.46 1679.43 825.627 1277.66 1076.21 2710.78 1306.27 1485.5 542.296 464.818 1029.53
internal_count=140000 65077 74923 28482 42735 36595 32188 11541 16941 18779 14398 17149 8969 17816 25586 6726 4190 9967 9111 12421 10904 4779 7672 6429 19935 8812 9637 3497 2572 6440
is_linear=0
shrinkage=0.05


Tree=5
num_leaves=31
num_cat=0
split_feature=9 3 9 3 9 9 7 5 7 5 7 5 9 5 9 7 8 8 7 7 5 0 8 8 8 9 2 7 0 9
split_gain=3930.22 789.9 546.214 184.035 85.7273 68.8924 65.6477 60.8793 44.032 38.8057 35.9327 34.1179 28.2189 28.0784 26.749 22.8526 22.3958 20.51 20.3531 20.3229 19.792 19.2385 18.4032 18.0101 17.6562 16.9209 16.7487 16.2414 15.9657 15.9883
threshold=12.440000000000001 5139.0000000000009 8.4350000000000023 1996.0000000000002 10.315000000000003 6.9400000000000004 20.075000000000003 62164.000000000007 15.085000000000003 62164.000000000007 14.295000000000002 62164.000000000007 25.040000000000003 62164.000000000007 17.915000000000003 14.295000000000002 6512.5000000000009 4012.5000000000005 17.005000000000006 29.425000000000004 35251.000000000007 100004.00000000001 4987.5000000000009 4662.5000000000009 27987.500000000004 13.385000000000002 40877.000000000007 5.5250000000000012 88010.000000000015 13.385000000000002
decision_type=2 2 2 2 2 2 2 2 2 2 2 2 2 2 2 2 2 2 2 2 2 2 2 2 2 2 2 2 2 2
left_child=2 3 5 12 21 -1 9 10 -6 16 22 26 19 25 20 -9 -3 -17 -7 -2 -12 -4 -5 -11 -19 -8 -10 -14 29 -18
right_child=1 6 4 7 8 18 13 15 11 23 14 -13 27 -15 -16 17 28 24 -20 -21 -22 -23 -24 -25 -26 -27 -28 -29 -30 -31
leaf_value=-0.044183551946622712 0.046174755119966923 -0.0023523652627500122 -0.017478750272645376 -1.3781831587885967e-05 -0.015019209867695615 -0.035208460103865725 0.012645780681521564 0.012320042709910602 0.0098805585306343622 -0.02417452344977709 0.021164284367212099 -0.0097943711931430411 -0.002455120398793901 0.008833965932341278 0.048713515632796633 -0.0055863404974599252 0.008045692025608597 0.031109290370238435 -0.026445872146443963 0.063024526856430049 0.038773558044674708 -0.02843771636261664 0.028380731568791236 -0.0013291519342975371 0.016812081281625323 0.023458984587687894 -0.0022367757958029078 0.074359376606970937 0.0029137013823234332 0.021876414916365768
leaf_weight=1561.4708677828312 800.51622562110424 349.59562441706657 1873.4742447286844 66.609609961509705 1310.8667150437832 1362.3818490505219 626.01423543691635 357.63704645633698 448.40879343450069 92.888232707977295 201.88492453098297 1152.549954071641 7.1643248200416556 1302.4385745078325 574.63681495189667 47.597848266363144 376.23241695761681 951.31068566441536 1290.3078375905752 230.47368881106377 761.27069142460823 509.34890326857567 398.20770558714867 1210.7945655882359 279.35168428719044 857.15960909426212 783.35974264144897 174.25291112065315 341.10274814069271 469.9732149541378
leaf_count=12253 4477 2330 13405 421 9263 10344 4024 2254 2971 637 1193 8018 40 8450 3270 301 2448 5782 9591 1255 4468 3681 2390 8175 1720 5342 5397 911 2218 2971
internal_value=-7.28309e-05 0.0214848 -0.0220178 0.0362701 -0.0124266 -0.035851 0.00873685 0.0306484 -0.00765817 0.00338839 0.0364939 -0.00361117 0.0531413 0.0141909 0.0401761 0.0234925 0.0087708 0.0266184 -0.0309462 0.0499415 0.0350825 -0.0198213 0.0243117 -0.0029569 0.0278639 0.018895 0.00217438 0.0713259 0.0120459 0.0157271
internal_weight=20769.3 10477.1 10292.2 4850.91 6078.01 4214.16 5626.2 3638.51 3695.19 2840.59 2002.61 2384.32 1212.41 2785.61 1537.79 1635.9 1536.9 1278.26 2652.69 1030.99 963.156 2382.82 464.817 1303.68 1230.66 1483.17 1231.77 181.417 1187.31 846.206
internal_count=140000 65077 74923 28482 42735 32188 36595 21799 25649 18779 11742 16386 6683 17816 8931 10057 9967 7803 19935 5732 5661 17086 2811 8812 7502 9366 8368 951 7637 5419
is_linear=0
shrinkage=0.05


Tree=6
num_leaves=31
num_cat=0
split_feature=9 3 9 9 7 9 3 9 5 7 9 5 7 7 5 5 5 8 7 8 8 8 8 5 9 5 4 0 8 3
split_gain=3573.7 865.886 354.404 160.449 81.7496 62.4029 46.0609 43.7709 41.1815 39.9209 36.0701 33.599 28.7197 28.4112 27.3358 21.0829 20.5925 20.1941 19.927 19.1771 17.308 17.2021 16.423 17.4485 16.3217 16.1336 15.6353 15.6263 17.5249 15.4404
threshold=11.760000000000002 5139.0000000000009 8.2800000000000029 18.370000000000001 20.075000000000003 6.9400000000000004 882.00000000000011 12.785000000000002 62164.000000000007 10.015000000000002 13.385000000000002 62164.000000000007 23.955000000000002 15.855000000000002 62164.000000000007 62164.000000000007 35251.000000000007 4012.5000000000005 17.005000000000006 26012.500000000004 7312.5000000000009 7012.5000000000009 4987.5000000000009 62164.000000000007 10.315000000000003 62164.000000000007 12025.000000000002 160150.00000000003 22712.500000000004 8114.0000000000009
decision_type=2 2 2 2 2 2 2 2 2 2 2 2 2 2 2 2 2 2 2 2 2 2 2 2 2 2 2 2 2 2
left_child=2 3 5 9 7 -1 25 -3 12 -2 19 16 24 27 21 -15 -11 -13 -7 26 -18 -9 -12 -24 -4 -5 -6 28 -8 -10
right_child=1 4 8 6 10 18 13 14 29 11 22 17 -14 15 -16 -17 20 -19 -20 -21 -22 -23 23 -25 -26 -27 -28 -29 -30 -31
leaf_value=-0.043338949248187285 0.0092189047651771387 -0.0058249691911567191 -0.018468480378573116 0.065400077200379728 0.013037169914953614 -0.034818272611287449 0.024319161942370382 -0.00026052268844363582 -0.026322811967950735 0.021491924992350663 0.0022245991714628195 -0.010252817597904961 -0.0015341071091991977 0.050080094806149826 -0.0005806443547356888 0.036781377651623592 0.02369899022328634 0.023112582471814507 -0.025754388262640156 -0.0075834524176764256 0.039646278760021136 0.013920280789082454 0.024254209347312407 0.013305359422605759 -0.0090349044739917832 0.047181586543938558 0.0029263160520937069 -0.0039116922126294206 0.046726021627680921 -0.017379387269185965
leaf_weight=1513.5312097370625 316.296934440732 1382.5703128427267 937.20741136372089 280.52927052974701 933.86111386120319 1244.7045394480228 261.99461641907692 278.65871389210224 668.78948125243187 288.88229560852051 161.20226499438286 47.313559532165527 637.4703623354435 654.33475270867348 997.99997001886368 547.2972294986248 211.60914248228073 1092.4700721502304 1182.4603545367718 198.68451741337776 868.26072053611279 919.58632177114487 764.43882948160172 694.44788579642773 897.69796694815159 214.38851553201675 647.44721245765686 33.258273467421532 130.844642162323 1733.5472162812948
leaf_count=12253 1947 9457 6836 1441 6049 9689 1512 1840 4954 1681 1019 303 4424 3551 6734 3121 1255 6631 8952 1312 4960 5805 4686 4449 6351 1131 4231 195 754 12477
internal_value=-8.07555e-05 0.0177624 -0.0242208 0.0337635 0.006419 -0.0353711 0.0441508 0.00114434 -0.015207 0.0259582 0.0119709 0.0280688 -0.0106769 0.0400894 0.00553163 0.044023 0.0333493 0.0217276 -0.0304026 0.0070578 0.0365213 0.0106225 0.017369 0.0190424 -0.0138533 0.0575082 0.00889741 0.0289963 0.0317823 -0.0198692
internal_weight=20741.8 11926.4 8815.41 4947.48 6978.9 3940.7 2122.65 3578.82 4874.71 2824.83 3400.08 2508.54 2472.38 1627.73 2196.25 1201.63 1368.75 1139.78 2427.16 1779.99 1079.87 1198.25 1620.09 1458.89 1834.91 494.918 1581.31 426.098 392.839 2402.34
internal_count=140000 74064 65936 28482 45582 30894 11705 23836 35042 16777 21746 14830 17611 9133 14379 6672 7896 6934 18641 11592 6215 7645 10154 9135 13187 2572 10280 2461 2266 17431
is_linear=0
shrinkage=0.05


Tree=7
num_leaves=31
num_cat=0
split_feature=9 3 2 3 7 9 9 3 7 9 9 5 5 0 5 5 7 8 7 8 5 5 8 8 8 8 7 9 0 8
split_gain=3244.51 757.184 338.756 137.886 72.8789 59.0494 39.4823 38.661 36.0292 35.1401 31.8403 28.9082 26.9588 24.5412 24.4293 20.8831 19.4469 18.2924 17.3514 17.217 16.4848 16.3952 19.0734 15.2925 14.9073 16.3346 14.7034 14.6195 14.6101 14.4753
threshold=11.760000000000002 5139.0000000000009 40877.000000000007 2751.5000000000005 20.075000000000003 10.315000000000003 12.785000000000002 882.00000000000011 10.015000000000002 6.9400000000000004 13.385000000000002 62164.000000000007 62164.000000000007 150012.50000000003 62164.000000000007 62164.000000000007 18.135000000000002 4012.5000000000005 10.015000000000002 26012.500000000004 35251.000000000007 62164.000000000007 4012.5000000000005 7012.5000000000009 7312.5000000000009 24012.500000000004 4.4750000000000005 8.4350000000000023 64000.500000000007 4987.5000000000009
decision_type=2 2 2 2 2 2 2 2 2 2 2 2 2 2 2 2 2 2 2 2 2 2 2 2 2 2 2 2 2 2
left_child=2 3 9 7 6 12 -3 26 -5 -1 19 20 -4 21 23 18 -11 -13 -7 -6 -10 22 -9 -8 -22 -26 -2 -14 -25 -12
right_child=1 4 5 8 10 15 14 13 11 16 29 17 27 -15 -16 -17 -18 -19 -20 -21 24 -23 -24 28 25 -27 -28 -29 -30 -31
leaf_value=-0.042515823858569224 -0.0084997624867602286 -0.0055550932654087771 -0.015845378003849386 0.0085720195597514849 0.0084046458716609904 -0.018846450934528681 -0.00024753830760117478 0.0076319392387170538 0.020677720978081855 -0.036686245717431648 0.0021104514677410089 -0.0099842476973892504 -0.031745758623772366 0.0065065449476807147 -0.00055182128237082136 -0.015113307416690668 -0.025381618436404879 0.021800447845449475 -0.002977323120634822 -0.0072396245583134598 0.022161690509364659 0.032898380236864221 0.044716534601036757 0.019677135213297794 0.040153348980983723 0.023282305343865158 0.054324354204251607 -0.021757657443887309 0.0071124341085828007 0.017881120038839831
leaf_weight=1465.0766719132662 9.4905381202697736 1377.3870175033808 1612.2994767203927 320.70421472191811 1590.0164454877377 207.00750178098679 278.61316980421543 36.179027870297432 296.39426445960999 863.31488367915154 161.41942077875137 47.178220897912979 530.93399857729673 61.997825175523758 997.63022911548615 1102.0800049751997 680.15009562671185 1116.9907072782516 1025.9966203570366 197.73926870524883 216.28070320188999 702.29948610067368 832.48913787305355 442.71271987259388 718.4999435544014 179.26751527190208 498.84857197105885 1181.8945915997028 484.62178166210651 1475.4777397960424
leaf_count=12235 51 9457 11977 1963 10280 1500 1840 200 1703 6907 1019 304 4151 358 6734 7994 5241 6688 7168 1312 1265 3957 4454 2733 4002 1016 2521 8763 3072 9135
internal_value=-8.72509e-05 0.0167034 -0.0234121 0.0314901 0.0060727 -0.0162061 0.00108551 0.04111 0.0243755 -0.0369694 0.0112875 0.0263441 -0.0204857 0.0373615 0.00523634 -0.0101119 -0.0317047 0.0205124 -0.00564157 0.00667427 0.0311575 0.0385792 0.043172 0.0100246 0.0339456 0.0367845 0.0531514 -0.0248537 0.0131109 0.0163259
internal_weight=20711 12042.2 8668.75 5036.62 7005.62 5660.21 3580.96 2141.3 2895.32 3008.54 3424.65 2574.61 3325.13 1632.97 2203.58 2335.08 1543.46 1164.17 1233 1787.76 1410.44 1570.97 868.668 1205.95 1114.05 897.767 508.339 1712.83 927.335 1636.9
internal_count=140000 74064 65936 28482 45582 41553 23836 11541 16941 24383 21746 14978 24891 8969 14379 16662 12148 6992 8668 11592 7986 8611 4654 7645 6283 5018 2572 12914 5805 10154
is_linear=0
shrinkage=0.05


Tree=8
num_leaves=31
num_cat=0
split_feature=9 9 2 3 5 9 5 7 9 7 7 5 5 8 7 7 5 7 3 9 3 4 3 7 2 9 8 0 8 6
split_gain=2946.58 664.212 323.883 121.782 65.2201 55.1092 42.5322 36.9962 34.5934 32.995 26.6674 25.4276 21.3491 20.0415 19.6978 19.3895 19.6065 18.8316 18.2238 18.2227 18.061 17.2695 16.4383 16.032 15.5887 13.9936 13.8583 13.8198 14.08 13.9074
threshold=11.760000000000002 15.690000000000001 40877.000000000007 1996.0000000000002 62164.000000000007 10.315000000000003 62164.000000000007 14.695000000000002 6.9400000000000004 17.005000000000006 27.565000000000001 62164.000000000007 62164.000000000007 5612.5000000000009 19.285000000000004 10.525 62164.000000000007 18.135000000000002 8387.5000000000018 13.385000000000002 201.50000000000003 10102.000000000002 3598.0000000000005 30.135000000000002 32270.500000000004 8.4350000000000023 6512.5000000000009 170021.00000000003 11912.500000000002 1168.0000000000002
decision_type=2 2 2 2 2 2 2 2 2 2 2 2 2 2 2 2 2 2 2 2 2 2 2 2 2 2 2 2 2 2
left_child=2 4 8 12 7 11 10 21 -1 18 13 -4 20 -5 27 -7 -17 -10 -6 -9 -3 -2 -16 -22 -11 -13 -24 28 -8 -30
right_child=1 3 5 6 9 15 14 19 17 24 -12 25 -14 -15 22 16 -18 -19 -20 -21 23 -23 26 -25 -26 -27 -28 -29 29 -31
leaf_value=-0.041691146202080163 0.0098397609736075552 0.077497374933421112 -0.015220694556255861 0.011326783309563916 -0.0011153323178480126 -0.01963497139716186 0.0016998720219299887 0.0094953343307456837 -0.035798147139759262 0.015998157804141787 0.037878154996054583 -0.030856806553149058 0.035510168441163885 0.02818647931991914 0.02779672376648358 -0.0027613171653552231 -0.012889974987320519 -0.024554082670448448 -0.01366900185278179 0.017834855388234736 0.042159361879198769 -0.0025878736863379098 -0.013951986118401875 0.061083015865626325 0.0027337018913461976 -0.020986635886710171 0.017981002609518491 -0.013568013883065605 0.074639691624615076 0.017444265067145772
leaf_weight=1420.4939415305853 483.97585424780846 49.574820756912231 1594.9980796948075 205.03726382553577 737.55430002510548 403.53364469110966 162.91227161884308 1389.1182677745819 841.06712295114994 253.35450929403305 668.31573148071766 519.22003246098757 586.32494258880615 1256.1799028515816 692.83483324944973 1005.1766931116581 910.64162850379944 668.22784379124641 475.45377478003502 1239.57008010149 522.46993479132652 661.76796796917915 38.136226162314415 142.43440018594265 1761.5705429315567 1164.5013088881969 311.45015807449818 47.715827882289886 10.883548110723494 453.11592103540897
leaf_count=12235 3172 235 11977 1216 4998 2975 994 8936 6907 1581 3619 4151 3079 6989 3970 7031 6656 5241 3346 7529 2668 4348 240 701 11498 8763 1855 294 66 2730
internal_value=-9.24474e-05 0.0157206 -0.0226215 0.029356 0.0056973 -0.0155722 0.0248837 0.0101598 -0.0360908 0.000479321 0.0296047 -0.0197447 0.0425812 0.0258207 0.0190285 -0.00967388 -0.00757575 -0.0308199 -0.0060359 0.0134279 0.0483838 0.00266171 0.0233367 0.0462131 0.00440156 -0.0240304 0.0144974 0.0123715 0.0143458 0.0187858
internal_weight=20677.6 12149.8 8527.86 5147.39 7002.37 5598.07 3846.58 3774.43 2929.79 3227.93 2129.53 3278.72 1300.8 1461.22 1717.05 2319.35 1915.82 1509.29 1213.01 2628.69 714.479 1145.74 1042.42 664.904 2014.93 1683.72 349.586 674.628 626.912 463.999
internal_count=140000 74064 65936 28656 45408 41553 21973 23985 24383 21423 11824 24891 6683 8205 10149 16662 13687 12148 8344 16465 3604 7520 6065 3369 13079 12914 2095 4084 3790 2796
is_linear=0
shrinkage=0.05


Tree=9
num_leaves=31
num_cat=0
split_feature=9 9 2 9 5 9 9 7 7 3 7 5 5 7 7 7 5 9 5 9 4 4 8 0 5 9 7 0 8 8
split_gain=2676.67 584.005 309.364 107.945 58.2697 51.3799 34.0305 32.8618 30.6279 30.3046 29.4525 23.9585 22.9796 21.7402 18.2199 17.9591 17.9848 17.2559 16.5254 16.4282 15.7044 15.4864 15.147 14.0593 13.8817 13.38 13.2119 13.0733 12.6535 13.3269
threshold=11.760000000000002 15.690000000000001 40877.000000000007 18.370000000000001 62164.000000000007 10.315000000000003 6.9400000000000004 14.695000000000002 13.895000000000001 882.00000000000011 10.015000000000002 62164.000000000007 62164.000000000007 15.855000000000002 18.135000000000002 10.525 62164.000000000007 12.640000000000002 35251.000000000007 13.255000000000001 10102.000000000002 10102.000000000002 4012.5000000000005 27012.000000000004 62164.000000000007 8.4350000000000023 13.105000000000002 160150.00000000003 7312.5000000000009 24012.500000000004
decision_type=2 2 2 2 2 2 2 2 2 2 2 2 2 2 2 2 2 2 2 2 2 2 2 2 2 2 2 2 2 2
left_child=2 4 6 10 7 11 -1 21 -6 26 -3 -4 18 23 -8 -7 -17 -10 -12 -9 -21 -2 -14 -11 -15 -13 -5 -25 -20 -30
right_child=1 3 5 9 8 15 14 19 17 13 12 25 22 24 -16 16 -18 -19 28 20 -22 -23 -24 27 -26 -27 -28 -29 29 -31
leaf_value=-0.04087442878453907 0.009289337398179779 0.0070164138377183565 -0.014615204302946928 0.029687517788731844 -0.0079319557649556276 -0.018910142540795153 -0.034920227382505241 0.0080192569712971042 -0.0040083070904908908 -0.020516465812905463 0.016802726642945257 -0.029980965714212104 -0.0099479598149651276 0.040580068486991326 -0.023743289906029579 -0.0026281209673967021 -0.012355232133942559 0.0057331391139110073 0.019207888135151212 0.021662928509443971 0.01149376710003564 -0.0024625601423545343 0.018959030354138321 0.027372694734120857 0.030094761414788791 -0.020234503907144704 0.049953127096412746 -0.0050702838213904679 0.035476241443765009 0.020446868756524871
leaf_weight=1377.5318994745612 486.94184112548828 325.4507759064436 1578.4541335180402 98.852096453309059 814.1556161493063 398.18993669748306 819.65163668990135 1111.0196045637131 607.41559663414955 17.800120741128922 303.47389543056488 507.95901536941528 47.181604564189911 697.60116000473499 656.79047754406929 1003.3620239198208 902.75778669118881 1806.9966074079275 222.29339374601841 681.5118465423584 857.16383057832718 660.69979691505432 1146.6061287820339 396.27668103575706 576.53947232663631 1147.8300875127316 431.40999290347099 33.691618710756302 742.60987074673176 184.05541732907295
leaf_count=12235 3172 1962 11977 492 5640 2975 6907 7158 4101 99 1698 4151 305 3551 5241 7031 6656 11682 1270 4076 5231 4348 6713 2167 3121 8763 2080 195 3989 1014
internal_value=-9.65573e-05 0.0148064 -0.0218489 0.0274675 0.00539271 -0.0149579 -0.035222 0.00959132 0.000454446 0.0357236 0.0212103 -0.0190228 0.022956 0.032505 -0.0299482 -0.00925247 -0.00723498 0.0032824 0.0271802 0.0126524 0.0159979 0.00252374 0.0178166 0.0230278 0.0358355 -0.0232245 0.0461752 0.0248305 0.0299211 0.0324911
internal_weight=20642.3 12249.7 8392.53 5223.84 7025.9 5538.55 2853.97 3797.34 3228.57 2252.17 2971.67 3234.24 2646.22 1721.91 1476.44 2304.31 1906.12 2414.41 1452.43 2649.7 1538.68 1147.64 1193.79 447.768 1274.14 1655.79 530.262 429.968 1148.96 926.665
internal_count=140000 74064 65936 28656 45408 41553 24383 23985 21423 11705 16951 24891 14989 9133 12148 16662 13687 15783 7971 16465 9307 7520 7018 2461 6672 12914 2572 2362 6273 5003
is_linear=0
shrinkage=0.05


Tree=10
num_leaves=31
num_cat=0
split_feature=9 9 2 3 9 9 7 9 7 5 8 0 8 8 5 3 0 5 7 8 5 0 8 7 4 9 7 4 6 7
split_gain=2431.98 514.691 295.196 94.0914 54.6231 47.8555 36.7545 33.4483 27.3645 27.0133 26.5825 31.2331 23.1469 30.3792 22.5502 22.2473 19.2574 18.6168 17.6109 17.082 18.9235 16.5561 15.7223 14.5481 13.0722 12.7785 12.7178 12.1446 11.7776 11.607
threshold=11.760000000000002 15.690000000000001 40877.000000000007 2751.5000000000005 13.385000000000002 10.315000000000003 15.085000000000003 6.9400000000000004 11.425000000000002 62164.000000000007 4987.5000000000009 75000.500000000015 24012.500000000004 7312.5000000000009 62164.000000000007 446.00000000000006 119999.50000000001 62164.000000000007 18.135000000000002 4987.5000000000009 62164.000000000007 27012.000000000004 4012.5000000000005 27.565000000000001 11428.000000000002 8.4350000000000023 8.9650000000000016 29730.000000000004 1168.0000000000002 23.955000000000002
decision_type=2 2 2 2 2 2 2 2 2 2 2 2 2 2 2 2 2 2 2 2 2 2 2 2 2 2 2 2 2 2
left_child=2 4 7 9 6 14 21 -1 -5 15 -6 24 13 -10 29 -3 -11 -8 -9 -7 26 -2 -17 -24 -12 -16 -21 -23 -14 -4
right_child=1 3 5 8 10 19 17 18 12 16 11 -13 28 -15 25 22 -18 -19 -20 20 -22 27 23 -25 -26 -27 -28 -29 -30 -31
leaf_value=-0.040064606677385796 0.021777951308607293 0.055452872974067015 -0.016411426575836163 0.0082955605096962058 -0.0039481125851097629 -0.022579065517460015 0.0084603528820853639 -0.034051983485736903 0.011921540097308161 0.029966804964500351 0.019271971190247018 0.0044155028890949391 0.075611980856815808 0.027465263105457289 -0.029118061263684505 0.0055231948157918164 0.0089395532588540383 7.2109085165962568e-06 -0.022949228238989691 -0.016829237776605228 -0.012494063695796358 -0.0036750752651163406 0.032972893123500609 0.045699682799037827 0.01088416713773625 -0.019501175588144629 -0.00085698869424518395 -0.014453244048277428 0.012398794521645221 -0.0062354003687688439
leaf_weight=1336.1652969568968 51.411007314920425 165.5092081874609 1196.7397089526057 429.70995707809925 311.17672614753246 206.09056045114994 1375.5150993019342 799.05256593227386 389.63305488228798 885.43209339678288 978.1294744759798 1023.2719718068838 7.4630101025104514 1626.7996449023485 497.14060516655445 41.321716487407684 124.15430270135403 1237.1729799211025 645.82417702674866 143.45527148246765 990.70728529989719 798.20777703821659 714.89474739134312 327.37544199824333 884.60013422369957 1131.8586336672306 949.68201258778572 388.593659684062 582.10115559399128 365.90027334541082
leaf_count=12235 351 762 9250 2563 2007 1493 8737 6907 2255 4645 5969 6522 42 8944 4151 219 676 8184 5241 1081 7396 5463 3644 1595 5482 8763 6692 2693 3311 2727
internal_value=-9.96859e-05 0.013955 -0.0210942 0.0257356 0.00510555 -0.0143626 0.0010948 -0.0343625 0.0199861 0.0334631 0.00993636 0.0114334 0.0219137 0.0244618 -0.0183198 0.038379 0.027381 0.00445758 -0.0290893 -0.00884715 -0.00748908 -0.00600082 0.0357712 0.0369704 0.0152886 -0.0224361 -0.00295307 -0.00720416 0.013199 -0.0140287
internal_weight=20605.1 12342.5 8262.62 5294.39 7048.08 5481.57 3850.9 2781.04 3035.71 2258.69 3197.18 2886 2606 2016.43 3191.64 1249.1 1009.59 2612.69 1444.88 2289.94 2083.84 1238.21 1083.59 1042.27 1862.73 1629 1093.14 1186.8 589.564 1562.64
internal_count=140000 74064 65936 28656 45408 41553 25428 24383 17115 11541 19980 17973 14552 11199 24891 6220 5321 16921 12148 16662 15169 8507 5458 5239 11451 12914 7773 8156 3353 11977
is_linear=0
shrinkage=0.05


Tree=11
num_leaves=31
num_cat=0
split_feature=9 3 2 3 7 9 9 5 9 9 7 5 7 8 8 4 7 5 4 3 7 4 8 7 9 8 0 8 7 8
split_gain=2209.94 454.58 281.371 84.1877 52.4353 44.7672 32.8446 30.6732 29.763 23.7858 23.3752 19.8857 19.8074 19.2764 18.9043 18.7921 17.0041 16.8839 15.2845 15.2346 15.5207 14.3986 22.7629 14.3194 14.065 13.7454 14.5483 13.7399 11.6674 11.5857
threshold=11.760000000000002 5139.0000000000009 40877.000000000007 1996.0000000000002 20.075000000000003 9.4650000000000016 6.9400000000000004 62164.000000000007 12.785000000000002 14.405000000000003 13.105000000000002 62164.000000000007 27.565000000000001 26012.500000000004 4987.5000000000009 12025.000000000002 18.135000000000002 62164.000000000007 8797.5000000000018 201.50000000000003 30.135000000000002 8453.0000000000018 13012.500000000002 19.285000000000004 16.570000000000004 5012.5000000000009 39000.155000000006 5612.5000000000009 19.285000000000004 5012.5000000000009
decision_type=2 2 2 2 2 2 2 2 2 2 2 2 2 2 2 2 2 2 2 2 2 2 2 2 2 2 2 2 2 2
left_child=2 3 6 19 8 11 -1 12 -3 13 29 -4 27 14 -6 25 -8 -12 21 -2 -21 -16 -23 -9 -25 28 -27 -5 -10 -7
right_child=1 4 5 7 9 10 16 23 15 -11 17 -13 -14 -15 18 -17 -18 -19 -20 20 -22 22 -24 24 -26 26 -28 -29 -30 -31
leaf_value=-0.039260771239776344 0.055401764829975719 -0.0051650796389791035 -0.01462176883784713 0.0092730216247362759 -0.0043566793871106825 -0.030568407219212248 -0.033193034652928353 0.0099448718907791007 -0.0084568324472943657 0.016205398509574274 -0.0037461122408620714 -0.024587305492039843 0.031411747397469707 -0.0052301902857407653 0.012198826276560375 -0.0012987731474260718 -0.022171917115444074 -0.012012676205870397 0.0066513108922065748 0.030804531464705989 0.044619837599813555 0.044597415206078468 0.003952557869812915 0.0063742466111234054 0.021748217769834738 0.024365989848282393 0.0078052704215129916 0.023121606703939548 0.044095348636149556 -0.014734701088755853
leaf_weight=1296.3647835329175 84.909935459494591 1369.5863888114691 977.99397426098585 207.73215961456299 259.99242979288101 134.58868116140366 779.25251522660255 687.00013060867786 162.88649964332581 906.11351965367794 1274.9262502193451 1025.4777742177248 695.86777926981449 295.31006526947021 603.39010186493397 915.62082009017467 635.31477610766888 1198.177064910531 1286.77535790205 1029.3780189603567 253.32658256590366 93.381033822894096 54.582237049937248 178.45713596045971 894.21580943465233 153.21534159779549 986.35300789773464 1299.7543170452118 11.293974623084067 815.8793228417635
leaf_count=12235 385 9457 7699 1204 1663 1028 6907 4042 1088 5395 9088 8431 3594 1918 3747 5966 5241 9070 8115 5090 1208 572 336 1037 4978 950 6303 6944 72 6237
internal_value=-0.000102105 0.01316 -0.0203573 0.0241944 0.00487366 -0.0137863 -0.0335118 0.0205031 0.0006361 0.0092316 -0.0103124 -0.0197226 0.0244342 0.00679503 0.00834028 0.00419999 -0.0282432 -0.00775112 0.00995996 0.0348907 0.033533 0.0156264 0.0296039 0.0155809 0.0191905 0.00803236 0.0100319 0.0212133 -0.00504932 -0.0169768
internal_weight=20567.1 12429.1 8137.98 5330.64 7098.5 5427.04 2710.93 3963.03 3598.96 3499.54 3423.57 2003.47 2203.35 2593.43 2298.12 2229.37 1414.57 2473.1 2038.13 1367.61 1282.7 751.353 147.963 1759.67 1072.67 1313.75 1139.57 1507.49 174.18 950.468
internal_count=140000 74064 65936 28482 45582 41553 24383 21799 23836 21746 25423 16130 11742 16351 14433 14379 12148 18158 12770 6683 6298 4655 908 10057 6015 8413 7253 8148 1160 7265
is_linear=0
shrinkage=0.05


Tree=12
num_leaves=31
num_cat=0
split_feature=9 2 2 9 5 9 9 7 8 1 8 7 3 0 7 7 7 8 5 3 5 5 0 8 6 8 8 5 9 0
split_gain=2008.36 403.396 267.91 96.8615 47.2469 42.5494 32.2177 30.7723 24.6316 36.1181 23.2034 22.5527 22.3924 20.423 18.8848 16.6381 16.454 15.6209 16.495 15.6132 15.2441 14.7911 15.2086 15.9444 12.8762 12.523 12.2872 12.2581 13.0106 12.1369
threshold=11.760000000000002 32270.500000000004 40877.000000000007 18.370000000000001 62164.000000000007 10.315000000000003 6.9400000000000004 10.015000000000002 24012.500000000004 70000.000000000015 1812.5000000000002 13.895000000000001 882.00000000000011 100004.00000000001 24.885000000000002 15.855000000000002 17.005000000000006 4987.5000000000009 62164.000000000007 8387.5000000000018 62164.000000000007 35251.000000000007 47003.500000000007 27987.500000000004 7808.0000000000009 28012.500000000004 4662.5000000000009 62164.000000000007 8.4350000000000023 27012.000000000004
decision_type=2 2 2 2 2 2 2 2 2 2 2 2 2 2 2 2 2 2 2 2 2 2 2 2 2 2 2 2 2 2
left_child=2 3 6 7 10 13 -1 26 9 20 -3 -6 -5 27 19 29 -8 -7 -19 24 -9 -16 -23 -24 -12 -13 -2 -4 -29 -14
right_child=1 4 5 12 11 17 16 8 -10 -11 14 25 15 -15 21 -17 -18 18 -20 -21 -22 22 23 -25 -26 -27 -28 28 -30 -31
leaf_value=-0.038462153810599489 -0.018820565061820053 -0.023400280650206891 -0.011585220316227225 0.038149918272515564 -0.0089946067344924881 -0.021307484099788276 -0.032859410517149454 0.030825019795461261 0.010058901275072564 0.014521353333405224 -0.0021916645042726864 0.0027875667394918931 -0.021660191167286468 -0.024761612829319341 0.0030864996164934213 0.029506021615375879 -0.021961696092135316 -0.002470194743752905 -0.011433122191773764 0.00077660750910720313 0.02030779908838511 0.0098054270435990465 0.027908538703200189 -0.0031250749391662559 0.011212299347590125 -0.008254955032721072 0.0071164430156864444 -0.02679488347499619 -0.015173444087890401 0.020143570206814596
leaf_weight=1258.0977266281843 51.802838981151581 60.060486301779747 1302.6475633457303 555.57415917515755 720.01221086084843 201.10087257623672 692.64163516461849 748.23231083154678 746.32543455064297 1363.1519015729427 213.55926950275898 1832.7776973247528 18.064939513802528 668.70353560894728 244.57184642553329 1332.2887858003378 692.83898612111807 1085.7672839909792 973.63757191598415 998.8430008739233 638.59851968288422 355.98946858942509 339.65736065804958 47.132107824087143 1112.5986531674862 298.57704293727875 385.18872581422329 344.8962019905448 798.19674449414015 446.67235581576824
leaf_count=12235 329 392 10139 2572 5044 1493 6304 3940 4243 7691 1334 11941 99 5440 1488 6672 5844 7773 7396 6664 3663 2158 2060 295 6819 1985 2313 2991 6321 2362
internal_value=-0.000103784 0.0124172 -0.0196378 0.0213514 0.00339385 -0.0132283 -0.0326697 0.0165513 0.0181148 0.0203011 0.00739962 -0.00134391 0.0293768 -0.0170183 0.00795809 0.0266645 -0.0274098 -0.00800649 -0.00670765 0.00549782 0.0259821 0.0137515 0.0172631 0.0241269 0.00905378 0.00124064 0.00404176 -0.0149011 -0.0186799 0.0185186
internal_weight=20528.2 12509.7 8018.53 6285.9 6223.78 5374.95 2643.58 3933.3 3496.31 2749.98 3372.41 2851.37 2352.6 3114.44 3312.35 1797.03 1385.48 2260.51 2059.4 2325 1386.83 987.351 742.779 386.789 1326.16 2131.35 436.992 2445.74 1143.09 464.737
internal_count=140000 74064 65936 33884 40180 41553 24383 22179 19537 15294 21210 18970 11705 24891 20818 9133 12148 16662 15169 14817 7603 6001 4513 2355 8153 13926 2642 19451 9312 2461
is_linear=0
shrinkage=0.05


Tree=13
num_leaves=31
num_cat=0
split_feature=9 3 2 3 5 9 9 5 7 7 7 5 7 7 5 8 8 8 9 0 8 4 3 8 0 7 9 8 7 3
split_gain=1825.26 358.493 254.8 65.8891 44.622 39.6022 31.5669 25.7448 24.0255 23.4167 22.4242 17.8814 16.1845 15.8883 14.571 13.929 13.5454 13.0684 12.4569 12.4052 12.4698 12.3138 11.7483 11.2632 11.0905 11.0858 11.0519 11.0363 11.9373 11.0325
threshold=11.760000000000002 5139.0000000000009 40877.000000000007 1996.0000000000002 62164.000000000007 9.4650000000000016 6.9400000000000004 62164.000000000007 14.695000000000002 17.005000000000006 23.955000000000002 62164.000000000007 27.565000000000001 18.135000000000002 62164.000000000007 5612.5000000000009 3012.5000000000005 1812.5000000000002 14.405000000000003 62004.000000000007 4012.5000000000005 10102.000000000002 201.50000000000003 4987.5000000000009 100004.00000000001 8.3950000000000014 17.915000000000003 7312.5000000000009 30.135000000000002 8387.5000000000018
decision_type=2 2 2 2 2 2 2 2 2 2 2 2 2 2 2 2 2 2 2 2 2 2 2 2 2 2 2 2 2 2
left_child=2 3 6 14 8 11 -1 12 17 15 23 -4 26 -8 22 -6 -10 -3 -18 20 -9 -19 -2 -7 25 -25 -5 -24 -29 -17
right_child=1 4 5 7 9 10 13 19 16 -11 -12 -13 -14 -15 -16 29 18 21 -20 -21 -22 -23 27 24 -26 -27 -28 28 -30 -31
leaf_value=-0.037668111492496936 0.05774518509825765 -0.039349331249938023 -0.013491225788895689 0.015581805413759073 -0.020894263427500386 -0.022879198125722172 -0.031514200040587546 -0.0074757407938379943 -0.0031916799584744342 0.0032892495618154212 -0.0027988478393318576 -0.023067517863699118 0.027924756256788197 -0.020648454391865127 0.025076941878600014 0.00035123037652232949 0.0094143189786201863 0.0086427505638154885 0.017449159279462122 0.010155089378146123 0.020201664916534773 -0.0018702216901552186 0.014342490243622903 -0.018882242062114231 -0.017318577258317678 -0.0073210533130696632 0.024375032874642225 0.032053394296622982 0.048480213270996032 -0.010074949555238683
leaf_weight=1221.3291229680181 54.282646119594574 18.853084430098534 958.74589957296848 972.41123324632645 130.80191811919212 214.04352384060621 742.22448750585318 43.199752435088158 168.49432937800884 2051.6410180330276 929.30581609904766 991.6806598007679 713.56193144619465 615.36263819038868 631.13543008267879 666.97140142321587 1908.6020636856556 486.39414557814598 645.54652614891529 1045.6056900769472 702.09130325913429 651.78577545285225 67.280827447772026 241.22225508093834 513.60354346781969 1476.5586126446724 564.94033122062683 510.40743090212345 141.18917533755302 409.50538013875484
leaf_count=12235 235 131 7699 5254 927 1648 6907 266 1069 13136 6793 8431 3594 5241 3079 4503 11758 3124 3703 5904 3887 4282 325 1883 3987 11112 2894 2409 635 2949
internal_value=-0.000104932 0.0117222 -0.0189358 0.0213839 0.0043512 -0.0126885 -0.0318359 0.0181421 0.00797427 3.80077e-05 -0.00941046 -0.0183602 0.0217016 -0.026589 0.0307141 -0.00548713 0.0105393 0.00193853 0.0114451 0.0136684 0.0185974 0.00262243 0.0353157 -0.011923 -0.010872 -0.00894455 0.0188131 0.0336221 0.0356128 -0.00361502
internal_weight=20488.8 12584.7 7904.08 5446.11 7138.6 5325.16 2578.92 4041.81 3879.68 3258.92 3374.73 1950.43 2250.91 1357.59 1404.3 1207.28 2722.64 1157.03 2554.15 1790.9 745.291 1138.18 773.16 2445.43 2231.38 1717.78 1537.35 718.877 651.597 1076.48
internal_count=140000 74064 65936 28482 45582 41553 24383 21799 24067 21515 25423 16130 11742 12148 6683 8379 16530 7537 15461 10057 4153 7406 3604 18630 16982 12995 8148 3369 3044 7452
is_linear=0
shrinkage=0.05


Tree=14
num_leaves=31
num_cat=0
split_feature=9 2 2 9 5 9 9 5 7 8 7 0 3 8 7 7 8 7 3 7 0 5 0 8 5 8 0 0 8 6
split_gain=1658.94 320.654 242.055 76.0042 38.4068 37.6899 30.8908 27.3532 21.3568 19.6788 18.9623 18.9099 17.1299 15.9506 15.9118 15.3608 15.1188 14.3492 13.7071 13.5573 13.409 13.0039 13.1728 13.9261 12.939 12.4796 12.4489 12.2084 11.351 11.2877
threshold=11.760000000000002 32270.500000000004 40877.000000000007 17.915000000000003 62164.000000000007 10.315000000000003 6.9400000000000004 62164.000000000007 15.085000000000003 1812.5000000000002 13.895000000000001 100004.00000000001 446.00000000000006 28012.500000000004 24.885000000000002 17.005000000000006 7012.5000000000009 10.525 8387.5000000000018 11.865 39000.155000000006 35251.000000000007 47003.500000000007 27987.500000000004 62164.000000000007 4987.5000000000009 88010.000000000015 65005.000000000007 28012.500000000004 7808.0000000000009
decision_type=2 2 2 2 2 2 2 2 2 2 2 2 2 2 2 2 2 2 2 2 2 2 2 2 2 2 2 2 2 2
left_child=2 3 6 8 9 11 -1 12 25 -3 -6 -4 -5 16 18 -8 -10 -7 29 -14 -21 -16 -23 -24 -19 -2 -9 -15 -12 -11
right_child=1 4 5 7 10 17 15 26 13 14 28 -13 19 27 21 -17 -18 24 -20 20 -22 22 23 -25 -26 -27 -28 -29 -30 -31
leaf_value=-0.036878126060735927 -0.0088614734335267786 -0.022101846755655657 -0.013735814335607239 0.043942819081238427 -0.008330062761247892 -0.016109218407145014 -0.031198787300256537 0.022614297081460986 0.0088517519683763805 -0.0023650050416118683 0.0025544923467788814 -0.023360929351016493 0.015930045331467253 -0.029831939763790668 0.002409083044458474 -0.020454973135025603 0.019604946563027092 -0.0015135569764319358 0.00043032677961123925 0.020314888234499187 0.032402552607899891 0.0087222933012597644 0.025417883537220028 -0.0034894983200238353 -0.0098816033524439413 0.0093976248864270605 0.011967873648323466 0.008463323601453087 -0.0079745972999994749 0.010163368084253355
leaf_weight=1186.0217817872763 106.33323051035404 58.686197683215141 2395.1974746286869 174.98698017001152 712.8903748691082 378.33295679092407 659.75630970299244 933.99045331776142 397.14654664695263 213.9922122657299 1837.8126009255648 648.43898063898087 219.35757806897163 22.364519894123077 246.43545491993427 671.08699574321508 1847.4094888418913 988.25387121737003 1003.118227019906 304.59647956490517 929.73014509677887 360.02469299733639 347.18300747871399 47.344605565071106 867.40290056169033 780.21853075921535 388.91091518104076 299.76882643997669 297.39218688011169 1124.7207140475512
leaf_count=12235 670 392 19451 762 5044 2975 6304 4743 2260 1334 11941 5440 1124 124 1488 5844 9990 7031 6664 1465 4466 2158 2060 295 6656 4555 2033 1692 1985 6819
internal_value=-0.000105358 0.0110716 -0.0182512 0.0189337 0.00301419 -0.0121664 -0.0310104 0.0248252 0.0138981 0.00660085 -0.00126938 -0.0157864 0.0291632 0.0162091 0.00710475 -0.0257811 0.0177023 -0.00723448 0.00484942 0.0273841 0.0294197 0.0123811 0.015638 0.0219489 -0.00542509 0.00720762 0.0194844 0.00580463 0.001088 0.00816072
internal_weight=20448.9 12654.4 7794.49 6404.81 6249.6 5277.63 2516.87 2951.57 3453.24 3401.51 2848.1 3043.64 1628.67 2566.69 3342.82 1330.84 2244.56 2233.99 2341.83 1453.68 1234.33 1000.99 754.552 394.528 1855.66 886.552 1322.9 322.133 2135.2 1338.71
internal_count=140000 74064 65936 33884 40180 41553 24383 14593 19291 21210 18970 24891 7817 14066 20818 12148 12250 16662 14817 7055 5931 6001 4513 2355 13687 5225 6776 1816 13926 8153
is_linear=0
shrinkage=0.05


Tree=15
num_leaves=31
num_cat=0
split_feature=9 2 2 9 9 5 9 7 7 8 1 8 7 9 7 5 7 7 8 0 3 8 5 0 8 0 8 5 0 8
split_gain=1507.72 285.063 229.68 68.2255 35.2628 34.4844 30.1904 24.1647 20.2643 20.1064 20.7469 17.8676 17.7031 18.5477 17.2133 16.8867 14.7716 14.1527 13.9287 13.0481 12.2705 12.0909 11.731 11.68 10.681 11.6096 10.6758 10.2783 15.7625 10.2745
threshold=11.760000000000002 32270.500000000004 40877.000000000007 18.370000000000001 9.4650000000000016 62164.000000000007 6.9400000000000004 10.015000000000002 23.955000000000002 33437.500000000007 70000.000000000015 1812.5000000000002 15.475000000000003 21.235000000000003 13.895000000000001 62164.000000000007 18.135000000000002 24.885000000000002 24012.500000000004 27012.000000000004 8387.5000000000018 30012.500000000004 62164.000000000007 119999.50000000001 22712.500000000004 44013.500000000007 4662.5000000000009 35251.000000000007 47003.500000000007 28012.500000000004
decision_type=2 2 2 2 2 2 2 2 2 2 2 2 2 2 2 2 2 2 2 2 2 2 2 2 2 2 2 2 2 2
left_child=2 3 6 7 15 11 -1 -2 26 10 18 -3 19 -14 -7 -4 -8 20 22 -5 -13 27 -9 24 25 -21 -6 -19 -29 -16
right_child=1 5 4 12 8 14 16 9 -10 -11 -12 17 13 -15 29 -17 -18 21 -20 23 -22 -23 -24 -25 -26 -27 -28 28 -30 -31
leaf_value=-0.036091803295527518 0.0028181265691857253 -0.021301382727031373 -0.01232109606340291 -0.021303460268802671 -0.022366377814751127 -0.0079583133772020368 -0.02987053479608456 0.026304598739411007 -0.0022563899891840391 0.0021487296820357936 0.012003989743651364 0.0077148166371656035 0.023414748440500979 0.034190320847797467 0.0024228366004423311 -0.021742305366268908 -0.019193539085556856 0.0036623823832602851 0.011032402844872773 0.033291140577636089 0.00040869646193343639 -0.015799186029373396 0.017217079150019281 0.0038834799381784143 0.032693304292481733 0.01128030911513507 -0.009999872700419148 0.0082437189901640503 0.022892897376258114 -0.007615243556277889
leaf_weight=1152.1366888657212 442.7725552469492 57.868165642023087 939.37322094291449 21.37465637922287 189.42710342258215 708.98376393318176 708.12322133034468 773.71388848125935 922.20846040546894 272.69744524359703 1530.8590079247952 1345.0620868653059 1229.7023451775312 591.4039321243763 1840.7176618725061 963.46618268638849 597.09850320965052 234.87376856803894 352.13895232975483 79.467592641711235 1003.3899931609631 38.512518212199211 656.41201993823051 111.34243839979172 154.21815824508667 243.39684072136879 2217.7536777630448 361.83121591806412 372.84587064385414 295.89370779693127
leaf_count=12235 2642 392 7699 112 1493 5044 6907 3940 6793 1537 8452 8153 5978 2678 11941 8431 5241 1414 1945 396 6664 241 3663 571 758 1212 17137 2158 2188 1985
internal_value=-0.000105404 0.0104612 -0.0175838 0.0178299 -0.0116618 0.0028576 -0.030193 0.0138383 -0.0085586 0.015199 0.0162732 0.00624546 0.024445 0.0269141 -0.00120743 -0.0170913 -0.0249861 0.00672039 0.0199402 0.0170713 0.00459323 0.0116759 0.0221335 0.0184653 0.0218685 0.0166979 -0.010973 0.0127673 0.0156781 0.00103269
internal_weight=20409.1 12719.5 7689.59 6459.5 5232.23 6259.98 2457.36 4028.59 3329.39 3585.82 3313.12 3414.38 2430.91 1821.11 2845.6 1902.84 1305.22 3356.52 1782.26 609.8 2348.45 1008.06 1430.13 588.425 477.083 322.864 2407.18 969.551 734.677 2136.61
internal_count=140000 74064 65936 33884 41553 40180 24383 22179 25423 19537 18000 21210 11705 8656 18970 16130 12148 20818 9548 3049 14817 6001 7603 2937 2366 1608 18630 5760 4346 13926
is_linear=0
shrinkage=0.05


Tree=16
num_leaves=31
num_cat=0
split_feature=9 9 2 3 9 9 9 7 5 8 0 0 5 8 0 7 8 5 4 8 7 7 7 9 5 0 8 6 0 8
split_gain=1370.25 254.22 217.677 48.1964 34.6712 33.3043 29.4652 23.4519 21.762 19.2172 21.5879 17.779 16.377 14.4561 14.393 14.2679 13.336 14.1878 12.1702 12.1196 11.7181 11.2941 10.787 10.691 10.4909 10.4678 10.7112 11.1273 10.4107 10.3742
threshold=11.760000000000002 15.690000000000001 40877.000000000007 1996.0000000000002 13.385000000000002 10.315000000000003 6.9400000000000004 15.085000000000003 62164.000000000007 4987.5000000000009 52012.400000000009 100004.00000000001 35251.000000000007 4012.5000000000005 27012.000000000004 17.005000000000006 4987.5000000000009 62164.000000000007 12025.000000000002 3012.5000000000005 13.895000000000001 19.285000000000004 27.565000000000001 16.570000000000004 62164.000000000007 170021.00000000003 11912.500000000002 1168.0000000000002 40004.000000000007 3612.5000000000005
decision_type=2 2 2 2 2 2 2 2 2 2 2 2 2 2 2 2 2 2 2 2 2 2 2 2 2 2 2 2 2 2
left_child=2 4 6 19 7 11 28 14 12 -6 -11 -4 -5 -14 -2 -8 -7 -18 -9 -3 -21 25 -15 29 -22 26 -10 -28 -1 -23
right_child=1 3 5 8 9 16 15 18 21 10 -12 -13 13 22 -16 -17 17 -19 -20 20 24 23 -24 -25 -26 -27 27 -29 -30 -31
leaf_value=-0.01917456502158665 0.020436450808746183 -0.012748894310936424 -0.012622899703572832 0.010156344912490518 -0.0043688602033362554 -0.019089285956553161 -0.029571955239302106 0.0059563500493081331 -0.0029579974673029424 0.014447380556647569 0.005520824966800595 -0.022078834881524786 0.005262303247965238 0.019070303123036592 -0.0064240139497999411 -0.019015395851336752 -0.0013752762013423563 -0.0097772404650010112 -0.00090663102013326883 0.01729107088401944 0.032959338405544616 -0.05480582254345287 0.027642699484914504 0.016400202156295771 0.023318155072228508 -0.016044779480987363 0.059068182623046674 0.0103501464452903 -0.036749620275929519 0.0057909781245829503
leaf_weight=91.785581827163696 52.087523400783539 20.199150323867798 2348.4641163498163 484.12244766950607 312.56614027917385 192.73131228983402 629.49795516580343 1542.290756881237 171.70614987611771 1045.6495898216963 1922.7091281116009 630.56577604264021 143.67380346357822 1160.9624789357185 1172.9349752217531 651.18084539473057 1069.4142223522067 947.7315903455019 1111.5178137868643 290.44042965769768 616.16843149065971 7.3413947969675055 536.58720135688782 935.81682199239731 520.51353308558464 49.392407268285751 12.010871544480322 485.02137014269829 1027.848335981369 186.31624999642372
leaf_count=1003 351 96 19451 2495 2007 1493 6304 9757 994 6147 11826 5440 797 5933 8156 5844 7773 7396 7164 1384 2753 48 2599 4978 2450 294 66 2730 11232 1039
internal_value=-0.000105048 0.00988838 -0.0169337 0.0178478 0.00364042 -0.0111743 -0.0293841 0.000440396 0.0151209 0.0074236 0.00866534 -0.0146244 0.0183395 0.0204911 -0.00528192 -0.0242043 -0.00652346 -0.00532284 0.00308187 0.0257099 0.0262542 0.0110702 0.02178 0.0141873 0.0285444 0.00616755 0.00780813 0.0115274 -0.0353088 0.00349381
internal_weight=20369.2 12780 7589.22 5620.27 7159.76 5188.91 2400.31 3878.83 4172.95 3280.92 2968.36 2979.03 2325.35 1841.22 1225.02 1280.68 2209.88 2017.15 2653.81 1447.32 1427.12 1847.61 1697.55 1129.47 1136.68 718.131 668.738 497.032 1119.63 193.658
internal_count=140000 74064 65936 28656 45408 41553 24383 25428 21973 19980 17973 24891 11824 9329 8507 12148 16662 15169 16921 6683 6587 10149 8532 6065 5203 4084 3790 2796 12235 1087
is_linear=0
shrinkage=0.05


Tree=17
num_leaves=31
num_cat=0
split_feature=9 2 9 9 9 5 7 5 7 5 8 8 7 7 3 4 8 0 8 4 0 4 5 0 8 0 9 7 7 0
split_gain=1245.25 227.464 206.373 55.0283 46.1369 30.4832 26.0626 21.8829 16.4858 16.0841 15.9557 15.137 14.9456 14.6687 13.8906 13.3432 12.4525 11.7207 11.5198 11.403 17.9305 12.1537 11.2848 11.1928 10.4682 10.1569 10.1032 10.0174 10.0023 11.3848
threshold=11.760000000000002 32270.500000000004 8.2800000000000029 17.915000000000003 6.9400000000000004 62164.000000000007 14.695000000000002 62164.000000000007 15.085000000000003 62164.000000000007 1812.5000000000002 5612.5000000000009 17.005000000000006 13.895000000000001 446.00000000000006 10102.000000000002 28012.500000000004 49999.500000000007 7012.5000000000009 8453.0000000000018 32094.000000000004 8797.5000000000018 62164.000000000007 65005.000000000007 4987.5000000000009 88010.000000000015 26.880000000000003 15.085000000000003 11.865 39000.155000000006
decision_type=2 2 2 2 2 2 2 2 2 2 2 2 2 2 2 2 2 2 2 2 2 2 2 2 2 2 2 2 2 2
left_child=2 3 4 8 -1 10 11 14 24 -8 -3 -4 -6 -7 -5 19 18 -11 -10 -12 21 -21 -13 -18 -2 -9 -27 -17 -16 -30
right_child=1 5 6 7 12 13 9 25 16 17 15 22 -14 -15 28 27 23 -19 -20 20 -22 -23 -24 -25 -26 26 -28 -29 29 -31
leaf_value=-0.034522300371796183 -0.0089496125980229185 -0.020497856621642614 -0.025830849386666535 0.037765597737288548 -0.026076912152594323 -0.0075337466119116472 -0.0028629474813671452 0.018867565314906607 0.0072435054052202965 -0.0006653719423848326 0.0065342249791359294 -0.0079303967636158903 -0.017385350158239787 0.00078288123680329217 0.01330583079742019 -0.0019168325016734183 -0.029701685619279567 -0.012569615200449254 0.016549067904664032 0.040838777601782804 0.0097781883239969232 0.01074621577612881 -0.017131689659223751 0.0069872415178303436 0.0077501607232016243 0.0082078474058940414 0.06446973910361363 0.0058852879649357384 0.016478154690869093 0.027467384966483568
leaf_weight=1090.3766333386302 106.43548367917538 57.056023195385933 249.62726693600416 179.60604859888554 985.07527954876423 704.4922448694706 1458.6761078760028 959.89407880604267 403.38383723795414 253.1196563243866 982.88126184046268 683.60070488601923 993.38011448085308 2143.0012786537409 223.95298725366592 608.14585708081722 22.313168421387672 1129.2363135591149 1894.8235086202621 96.748061954975128 365.28236258029938 51.367461919784546 650.13431247323751 304.09444744884968 793.00148126482964 389.14924104511738 8.1464679986238462 1271.6762897670269 312.5167680233717 958.65289704501629
leaf_count=12253 670 392 2054 762 9689 5044 10920 4743 2260 2037 5971 5437 8952 13926 1124 4004 124 9171 9990 582 2220 313 5423 1692 4555 1997 36 7728 1465 4466
internal_value=-0.000104303 0.00935025 -0.0163009 0.0158648 -0.0262642 0.00255012 -0.00939017 0.0208034 0.0116158 -0.0065253 0.00572248 -0.0145306 -0.0217129 -0.00127472 0.0246274 0.00616561 0.0136178 -0.0103899 0.0149157 0.00968886 0.0157283 0.0304025 -0.0124156 0.00447919 0.00577398 0.0160848 0.00936149 0.0033612 0.0230491 0.0247657
internal_weight=20329.8 12836.6 7493.23 6555.97 3068.83 6280.65 4424.39 3031.92 3524.05 2841.03 3433.16 1583.36 1978.46 2847.49 1674.73 3376.1 2624.61 1382.36 2298.21 1496.28 513.398 148.116 1333.74 326.408 899.437 1357.19 397.296 1879.82 1495.12 1271.17
internal_count=140000 74064 65936 33884 30894 40180 35042 14593 19291 22128 21210 12914 18641 18970 7817 20818 14066 11208 12250 9086 3115 895 10860 1816 5225 6776 2033 11732 7055 5931
is_linear=0
shrinkage=0.05


Tree=18
num_leaves=31
num_cat=0
split_feature=9 2 2 9 9 9 5 7 7 8 1 5 6 9 9 8 8 7 7 0 5 8 7 0 8 0 7 0 6 7
split_gain=1131.59 202.874 195.905 49.278 29.9008 27.6746 27.3913 19.202 17.8959 16.7289 16.4787 15.4761 14.8368 16.7188 14.3755 13.7142 13.7129 13.2613 12.4257 11.9357 11.5925 11.4231 11.2175 11.1282 10.8159 10.4152 10.0489 9.73343 9.53911 9.49228
threshold=11.760000000000002 32270.500000000004 40877.000000000007 18.370000000000001 9.4650000000000016 6.9400000000000004 62164.000000000007 10.015000000000002 24.885000000000002 33437.500000000007 70000.000000000015 62164.000000000007 7808.0000000000009 13.385000000000002 25.040000000000003 4987.5000000000009 26012.500000000004 18.135000000000002 29.425000000000004 88010.000000000015 35251.000000000007 24012.500000000004 12.695000000000002 82683.000000000015 4012.5000000000005 40004.000000000007 5.5250000000000012 135050.00000000003 1168.0000000000002 23.485000000000003
decision_type=2 2 2 2 2 2 2 2 2 2 2 2 2 2 2 2 2 2 2 2 2 2 2 2 2 2 2 2 2 2
left_child=2 3 5 7 11 25 12 -2 -6 10 21 -4 29 -14 18 -8 22 -7 19 24 -21 -9 -17 -20 -5 -1 -16 28 -13 -3
right_child=1 6 4 14 8 17 15 9 -10 -11 -12 27 13 -15 26 16 -18 -19 23 20 -22 -23 -24 -25 -26 -27 -28 -29 -30 -31
leaf_value=-0.017273799934605077 0.0018257424675074897 -0.0071007229191917326 -0.010714244017485776 -0.0039097177286281301 -0.0094677517327832993 -0.027550245976139084 -0.013123626180241897 0.018943894826247337 -0.0008608573578404383 0.00096183302137075894 0.0099876829307022005 0.049963056406279439 0.0038078226952298838 0.01155913194909346 -0.020423274893087678 -0.0056449680738392197 -0.0079154677910803061 -0.017165903033043578 0.023252831007590527 0.03182049714217388 0.007417785430447881 0.0089905621795345267 0.0033210887605621426 0.045145054328377954 0.020658883829204149 -0.035245359174402392 0.034777252587988028 -0.034074610947320776 -0.018462837674674805 0.0080492923445142899
leaf_weight=87.921194277703762 447.51205711066723 347.63941897451878 913.57599350064993 46.506937876343727 2467.3883125036955 663.52108523249626 222.73178970813751 1466.5523902326822 799.69431407004595 276.02422691881657 1558.8309310823679 5.1254766136407843 1825.7482169866562 1123.8861353546381 8.5753858834505063 438.12659749388695 472.24972803890705 572.9050681963563 479.44207054376602 55.316673934459686 404.90389573574066 358.78335399925709 1711.9056537747383 66.043849617242813 1217.7576990425587 970.70154047012329 213.75155901908875 106.92963248491287 813.67492669075727 147.15747655928135
leaf_count=1003 2642 2240 7699 233 19462 6907 1522 7603 5961 1537 8452 46 11538 6553 40 3146 3214 5241 2192 258 1991 1945 11088 311 5769 11232 911 996 7389 879
internal_value=-0.000103292 0.00884427 -0.0156853 0.0149678 -0.0102318 -0.027819 0.00241839 0.0116025 -0.00736101 0.0127978 0.0137632 -0.0153311 0.00541724 0.00676127 0.0205143 -0.00121228 -0.00020055 -0.0227386 0.0193259 0.0172454 0.0103509 0.0169875 0.00149401 0.0259034 0.0197551 -0.0337528 0.0326481 -0.0198873 -0.0180345 -0.00259496
internal_weight=20290.9 12889.4 7401.44 6600 5106.39 2295.05 6289.45 4107.7 3267.08 3660.19 3384.17 1839.31 3444.43 2949.63 2492.3 2845.01 2622.28 1236.43 2269.97 1724.49 460.221 1825.34 2150.03 545.486 1264.26 1058.62 222.327 925.73 818.8 494.797
internal_count=140000 74064 65936 33884 41553 24383 40180 22179 25423 19537 18000 16130 21210 18091 11705 18970 17448 12148 10754 8251 2249 9548 14234 2503 6002 12235 951 8431 7435 3119
is_linear=0
shrinkage=0.05


Tree=19
num_leaves=31
num_cat=0
split_feature=9 2 2 9 5 9 8 7 9 5 0 8 7 4 0 7 3 7 4 7 0 7 9 7 8 5 0 7 0 7
split_gain=1032.55 226.577 140.559 44.3233 31.7641 26.8973 22.8231 22.4774 19.2052 18.9835 14.6981 14.1008 13.8018 12.9489 15.8592 12.7234 11.4675 11.4141 11.0128 13.632 10.2231 9.67434 9.34839 8.87633 8.81171 8.49945 11.4779 9.83626 12.2804 8.38288
threshold=11.105000000000002 32270.500000000004 40877.000000000007 17.915000000000003 62164.000000000007 6.9400000000000004 4987.5000000000009 20.075000000000003 12.640000000000002 62164.000000000007 104026.00000000001 7012.5000000000009 27.565000000000001 10102.000000000002 27012.000000000004 17.005000000000006 446.00000000000006 14.695000000000002 11428.000000000002 6.3650000000000011 65005.000000000007 17.385000000000002 12.020000000000001 10.015000000000002 24012.500000000004 35251.000000000007 82683.000000000015 27.565000000000001 27012.000000000004 15.475000000000003
decision_type=2 2 2 2 2 2 2 2 2 2 2 2 2 2 2 2 2 2 2 2 2 2 2 2 2 2 2 2 2 2
left_child=2 3 5 12 6 20 22 10 29 16 11 -4 18 14 -8 -7 -5 -15 -2 -20 -1 -10 -3 -11 -9 26 -18 28 -27 -6
right_child=1 4 7 9 8 15 13 24 21 23 -12 -13 -14 17 -16 -17 25 -19 19 -21 -22 -23 -24 -25 -26 27 -28 -29 -30 -31
leaf_value=-0.02604375670019567 0.011575478833884795 -0.02041519377287776 -0.019479636079417148 0.033912029159203237 -0.012751484978218888 -0.02726384964097376 0.025223201741230855 -0.0052743542932779655 -0.0035921209592506944 0.0014363767514647121 -0.021474033504865962 -0.0096543298435832394 0.015016612951809036 -0.0025723062688973904 0.0075367720543693855 -0.017025614969508284 0.0082375656664054279 0.0055715133900921462 -0.015261890331221073 0.0062802771020559166 -0.036557042133892069 0.0035235234910473584 -0.0025654863188701335 0.015427084427933453 -0.016598535745036152 -0.0068126924698181093 0.029825514712713115 0.0293770251750839 0.020975721299415429 -0.0041786218488300726
leaf_weight=350.49906142055988 1246.714162632823 91.523464187979698 497.30724382400513 182.18632951378822 424.22797238826752 589.79208569228649 138.92486713826656 1360.0826868787408 772.2041404992342 124.65715561807156 563.80861322581768 1374.305258654058 1091.4325286597013 624.01754427701235 1446.1006899550557 625.04973515868187 249.81124779582024 1385.640189409256 78.457684844732285 1147.8156548142433 679.52202301472425 1252.3819316625595 369.45980134606361 1251.9470689445734 196.61951275169849 41.909129649400711 81.711299434304237 369.97960476577282 774.56344005465508 869.83846266567707
leaf_count=4144 6838 679 4212 762 3303 6304 838 11019 5371 653 4972 11563 5685 4198 8946 5844 1162 8541 469 6299 8091 7916 2385 6123 1625 208 383 1656 3646 6165
internal_value=-0.00010202 0.00742928 -0.0170261 0.0141283 0.00139625 -0.0270357 0.00436468 -0.0113974 -0.00223142 0.0185248 -0.0143969 -0.012265 0.0103333 0.00570788 0.00908696 -0.0219962 0.0220589 0.00304278 0.00826632 0.004902 -0.0329795 0.000809522 -0.00610936 0.0141602 -0.00670466 0.0206363 0.0135584 0.022614 0.0195494 -0.00698902
internal_weight=20252.5 14015.5 6236.99 6641.19 7374.32 2244.86 4055.67 3992.12 3318.65 3076.77 2435.42 1871.61 3564.42 3594.68 1585.03 1214.84 1700.16 2009.66 2472.99 1226.27 1030.02 2024.59 460.983 1376.6 1556.7 1517.97 331.523 1186.45 816.473 1294.07
internal_count=140000 82226 57774 33884 48342 24383 25587 33391 22755 14593 20747 15775 19291 22523 9784 12148 7817 12739 13606 6768 12235 13287 3064 6776 12644 7055 1545 5510 3854 9468
is_linear=0
shrinkage=0.05


Tree=20
num_leaves=31
num_cat=0
split_feature=9 3 2 9 9 5 7 8 8 7 5 8 0 8 7 7 7 0 3 0 9 5 0 7 6 4 7 9 0 0
split_gain=940.081 203.17 133.007 51.3181 26.1013 25.9715 21.0294 18.2063 17.527 16.9526 16.9051 16.463 14.0467 14.0396 12.1639 11.0063 10.6917 12.0532 10.4422 10.195 10.0053 9.58615 8.54716 12.221 10.3451 8.55243 8.40065 8.32581 8.23741 8.12322
threshold=11.105000000000002 8114.0000000000009 40877.000000000007 17.915000000000003 6.9400000000000004 62164.000000000007 23.955000000000002 4987.5000000000009 33437.500000000007 12.695000000000002 62164.000000000007 4987.5000000000009 104026.00000000001 7012.5000000000009 18.135000000000002 24.885000000000002 19.285000000000004 34206.000000000007 201.50000000000003 45002.000000000007 12.640000000000002 62164.000000000007 39000.155000000006 10.015000000000002 1168.0000000000002 8797.5000000000018 10.015000000000002 12.020000000000001 98005.000000000015 55004.000000000007
decision_type=2 2 2 2 2 2 2 2 2 2 2 2 2 2 2 2 2 2 2 2 2 2 2 2 2 2 2 2 2 2
left_child=2 3 4 7 19 11 12 26 15 -7 18 27 13 -4 -6 -9 17 -13 28 -1 -11 -8 -20 24 -24 -25 -2 -3 -5 -22
right_child=1 5 6 10 14 9 21 8 -10 20 -12 16 -14 -15 -16 -17 -18 -19 22 -21 29 -23 23 25 -26 -27 -28 -29 -30 -31
leaf_value=-0.018784928714048563 -0.016567880508018464 -0.019671563946291368 -0.017793939336626818 0.048395951706220137 -0.025996084936581444 -0.010587127030240666 0.00031612889495912563 0.0089443857834626724 -0.0010278922738985595 -0.0048484414546539683 0.013371258727868122 0.014258010476442581 -0.019574452696321853 -0.0089322010161620412 -0.015882287484215312 0.014424014136649869 0.0074455713531773179 4.462401080662835e-05 0.013534505770635977 -0.03410298149974577 0.0079423050511799372 -0.0095629721237243965 -0.021597989063708856 0.029872027190229002 0.014336970056069639 0.020677998465592776 0.0024618096682665698 -0.0023534403275330658 -0.01246644105714039 -0.00079333959540078478
leaf_weight=123.94434201717377 68.642369017004967 90.266727298498154 602.09257770329714 51.112409353256226 635.87670636177063 597.9019928202033 495.79241836071014 2306.6976414620876 321.82474924623966 1005.0095609128475 1384.7015138566494 167.26873755455017 640.339973539114 1734.5323430746794 558.32662837207317 1520.4100579768419 1566.5130369365215 1377.6765668392181 383.77758319675922 878.69242541491985 380.58759723603725 486.51663288474083 23.939628735184669 384.10796596109867 122.57897379994392 740.70330394804478 373.88153518736362 300.23109756410122 6.237959772348403 884.81466275453568
leaf_count=1478 449 679 5140 209 6907 4481 3809 12915 1852 7230 6776 1091 5717 14629 5241 8011 9523 9072 1771 10757 2421 4096 115 1739 597 3360 2196 1954 26 5759
internal_value=-0.000100546 0.00703445 -0.0163949 0.0125056 -0.0262614 0.000431019 -0.0109204 0.00915064 0.0101789 -0.0030966 0.0174792 0.00332035 -0.0130136 -0.0112157 -0.0212676 0.0111213 0.00453485 0.00158348 0.020801 -0.0322094 -0.001124 -0.00457678 0.0200742 0.0220483 0.00846557 0.0238176 -0.000489992 -0.00635666 0.041776 0.00183403
internal_weight=20215 14058.9 6156.11 7688.62 2196.84 6370.27 3959.27 4591.46 4148.93 2868.31 3097.16 3501.96 2976.96 2336.62 1194.2 3827.11 3111.46 1544.95 1712.46 1002.64 2270.41 982.309 1655.11 1271.33 146.519 1124.81 442.524 390.498 57.3504 1265.4
internal_count=140000 82226 57774 40016 24383 42210 33391 25423 22778 19891 14593 22319 25486 19769 12148 20926 19686 10163 7817 12235 15410 7905 7582 5811 712 5099 2645 2633 235 8180
is_linear=0
shrinkage=0.05


Tree=21
num_leaves=31
num_cat=0
split_feature=9 2 3 3 7 8 5 7 2 8 5 9 3 9 0 4 0 8 8 4 5 0 8 7 0 8 7 0 8 5
split_gain=855.748 182.175 126.586 37.8332 31.6494 27.0353 26.3472 18.0522 17.0587 16.9757 16.919 15.7087 14.2668 12.4281 13.4118 11.4425 13.4071 10.7442 10.5965 10.3963 10.352 10.0881 10.0971 9.65418 9.07067 11.3667 8.41983 8.27841 8.93694 8.97153
threshold=11.105000000000002 32270.500000000004 6718.5000000000009 1996.0000000000002 14.695000000000002 4987.5000000000009 62164.000000000007 23.955000000000002 40877.000000000007 33437.500000000007 62164.000000000007 12.440000000000001 4795.5000000000009 8.4350000000000023 45002.000000000007 10102.000000000002 27012.000000000004 5612.5000000000009 7012.5000000000009 8797.5000000000018 62164.000000000007 341000.00000000006 3012.5000000000005 14.695000000000002 60002.500000000007 14987.500000000002 11.425000000000002 35000.500000000007 3612.5000000000005 35251.000000000007
decision_type=2 2 2 2 2 2 2 2 2 2 2 2 2 2 2 2 2 2 2 2 2 2 2 2 2 2 2 2 2 2
left_child=2 3 12 21 8 -3 15 20 -4 17 -6 26 -1 -12 -15 16 -7 19 -10 -9 27 22 -2 -17 -22 -26 -8 -5 -29 -30
right_child=1 5 4 7 10 6 11 9 18 -11 13 -13 -14 14 -16 23 -18 -19 -20 -21 24 -23 -24 -25 25 -27 -28 28 29 -31
leaf_value=-0.025702208894091347 -0.014948071872477143 -0.0079764544293064957 -0.028711671794731164 0.0027704950742847619 -0.0047060952220091649 0.022960909392188377 -0.016181916138844194 0.017368307749066249 -0.022714966903526007 -0.0026070931163948651 -0.018759135009714836 0.0012924749031590669 -0.03691106851640099 0.0050370160873871453 -0.011487762036776874 -0.0025515798015584815 0.006853153023542633 0.016349011707806168 -0.012640109644578849 -0.0049351288261985891 0.010573075063103394 -0.050699617961435385 0.020355189992746849 0.0049308024858293921 -0.0080650171640813308 0.0050910683292558073 -0.0042018035764986921 -0.0055566263091897938 0.0049434923416559577 0.015274356882656177
leaf_weight=1051.6272934228182 20.536519125103951 717.93207585811615 268.21300449967384 274.03370589017868 1432.5451058074832 141.7545752376318 179.25221189856529 90.727821454405785 340.45387983322144 143.95539720356464 498.39699045568705 2063.2905613780022 388.85627128183842 143.91208484768867 836.52771393954754 623.82188072800636 1456.669655546546 1882.7818434387445 1118.1953243240714 123.19442345201969 447.29429909586906 5.0815904289484015 1471.235317632556 1395.4024810791016 218.30065153539181 662.24750661849976 806.7076905220747 66.762248381972313 263.0191496014595 1045.5227966755629
leaf_count=12185 96 4919 2980 1453 11782 838 1437 487 3010 764 4863 13542 4880 1193 7068 4198 8946 9364 9813 667 2458 25 6562 8541 1242 3694 5921 387 1360 5325
internal_value=-9.88848e-05 0.00666203 -0.0157807 0.0126223 -0.0117597 0.00124258 0.00223534 0.0106122 -0.0171226 0.0140022 -0.00857879 -0.00118833 -0.028728 -0.0123303 -0.0090622 0.00512109 0.00828165 0.0151425 -0.0149916 0.00452411 0.00806078 0.0196296 0.0198692 0.00261919 0.00477483 0.00182948 -0.00637985 0.0107062 0.0122874 0.0131978
internal_weight=20178.3 14099.5 6078.73 6714.69 4638.24 7384.83 6666.9 5217.84 1726.86 2240.66 2911.38 3049.25 1440.48 1478.84 980.44 3617.65 1598.42 2096.7 1458.65 213.922 2977.18 1496.85 1491.77 2019.22 1327.84 880.548 985.96 1649.34 1375.3 1308.54
internal_count=140000 82226 57774 33884 40709 48342 43423 27201 15803 11282 24906 20900 17065 13124 8261 22523 9784 10518 12823 1154 15919 6683 6658 12739 7394 4936 7358 8525 7072 6685
is_linear=0
shrinkage=0.05


Tree=22
num_leaves=31
num_cat=0
split_feature=9 3 3 3 9 7 7 5 3 0 8 0 4 3 7 7 0 8 5 8 0 8 5 4 0 5 7 7 4 6
split_gain=778.832 164.677 119.931 42.2806 29.7688 22.7939 18.2289 16.6988 15.5044 15.1047 14.3123 20.1929 13.9979 13.9496 12.8075 12.6712 12.2149 13.185 11.1779 10.9831 11.3371 9.96487 10.9368 9.61988 9.44406 9.32144 9.28939 8.6161 8.51268 8.35752
threshold=11.105000000000002 8114.0000000000009 6718.5000000000009 3229.5000000000005 8.4350000000000023 15.475000000000003 23.955000000000002 62164.000000000007 882.00000000000011 27012.000000000004 10012.500000000002 88010.000000000015 12025.000000000002 4795.5000000000009 10.015000000000002 14.695000000000002 104026.00000000001 7012.5000000000009 62164.000000000007 3612.5000000000005 52012.400000000009 5612.5000000000009 35251.000000000007 29730.000000000004 60002.500000000007 62164.000000000007 4.4750000000000005 13.895000000000001 7583.5000000000009 2089.5000000000005
decision_type=2 2 2 2 2 2 2 2 2 2 2 2 2 2 2 2 2 2 2 2 2 2 2 2 2 2 2 2 2 2
left_child=2 3 13 8 15 9 16 21 26 -3 18 29 19 -1 -10 -4 17 27 24 -7 -21 -5 28 -9 -11 -17 -2 -6 -23 -12
right_child=1 5 4 7 6 12 -8 23 14 10 11 -13 -14 -15 -16 25 -18 -19 -20 20 -22 22 -24 -25 -26 -27 -28 -29 -30 -31
leaf_value=-0.024943375431392897 -0.023106272211853428 0.016015206963743707 -0.022710591779071147 0.0030353594911524235 -0.023339069751281593 -0.0076276771658825744 -0.0019339046882763744 0.0071272811099957608 0.003919765233024535 -0.00060947458960978942 -0.030711448427282358 -0.0083056371526835388 -0.00094385636357850592 -0.036182857288316467 0.014733443274978992 -0.008064823579318486 -0.017824405693864728 -0.0063062407141433255 -0.018286912939376905 0.0096461275992362917 0.0026322375999161172 -0.011683636915649973 0.01398970837031604 -0.00029935207593157945 -0.015041497528585744 -0.018087087295401847 0.023294418529387365 -0.009702212862623797 0.0079251366754794581 0.0053937696965021221
leaf_weight=1029.9977827891707 10.987406343221663 90.96952773630619 591.93013171851635 369.93623650074005 217.62608003616333 164.43914987146854 796.94157145917416 1077.13294506073 303.94916081428528 321.50916425138712 16.437593542039394 578.33671656996012 1776.0586817786098 377.14797891676426 2761.7760463505983 439.61624844372272 478.01856189966202 1334.6955872699618 273.39755517989397 1034.9588727131486 1299.5709784701467 65.689040377736092 1500.2824586927891 732.6108679920435 175.08724058419466 491.25523211061954 589.74811996519566 247.63029173761606 351.60249669849873 643.1131678596139
leaf_count=12185 51 611 6188 2150 1909 1096 6288 6247 1574 2215 112 4122 11563 4880 13168 4072 4247 11081 2091 6411 8322 347 7816 4261 1218 4863 2521 2061 1881 4449
internal_value=-9.71233e-05 0.00631053 -0.015183 0.0112 -0.0112739 0.000354853 -0.00844261 0.00770959 0.0151006 -0.00391247 -0.00481532 -0.00148598 0.00244992 -0.0279558 0.0136613 -0.016991 -0.0107197 -0.00883283 -0.0101678 0.00486194 0.00574168 0.0105488 0.0119982 0.00412087 -0.00569784 -0.0133539 0.0224458 -0.0160809 0.00483837 0.00449394
internal_weight=20142.5 14137.6 6004.86 7763.71 4597.71 6373.88 3074.91 4097.25 3666.46 2098.85 2007.88 1237.89 4275.03 1407.15 3065.73 1522.8 2277.97 1799.95 769.994 2498.97 2334.53 2287.51 1917.57 1809.74 496.596 930.871 600.736 465.256 417.292 659.551
internal_count=140000 82226 57774 40016 40709 42210 25586 22702 17314 14818 14207 8683 27392 17065 14742 15123 19298 15051 5524 15829 14733 12194 10044 10508 3433 8935 2572 3970 2228 4561
is_linear=0
shrinkage=0.05


Tree=23
num_leaves=31
num_cat=0
split_feature=9 3 3 3 9 4 7 8 0 5 0 3 7 3 5 8 5 0 8 7 9 6 0 1 8 8 5 7 4 7
split_gain=708.703 147.527 113.468 37.7995 27.6943 20.9065 16.7189 15.7842 17.4817 14.9127 14.3787 13.6207 12.9114 12.8614 16.1339 16.1074 12.0963 11.3471 12.1884 9.3485 9.20345 14.1165 11.1788 9.13752 12.3307 8.8844 9.72768 8.84641 8.62821 8.4177
threshold=11.105000000000002 8114.0000000000009 6718.5000000000009 3229.5000000000005 8.4350000000000023 12025.000000000002 23.955000000000002 4987.5000000000009 75000.500000000015 62164.000000000007 88010.000000000015 4795.5000000000009 14.695000000000002 882.00000000000011 35251.000000000007 9987.5000000000018 62164.000000000007 104026.00000000001 7012.5000000000009 29.425000000000004 13.385000000000002 7808.0000000000009 35000.500000000007 70000.000000000015 14012.500000000002 5612.5000000000009 35251.000000000007 12.285000000000002 29730.000000000004 24.405000000000005
decision_type=2 2 2 2 2 2 2 2 2 2 2 2 2 2 2 2 2 2 2 2 2 2 2 2 2 2 2 2 2 2
left_child=2 3 11 10 16 7 17 -3 20 25 13 29 -7 -2 -15 -16 -4 18 -6 -12 -9 -22 23 24 -23 -5 -27 -18 -11 -1
right_child=1 5 4 9 6 12 -8 8 -10 28 19 -13 -14 14 15 -17 27 -19 -20 -21 21 22 -24 -25 -26 26 -28 -29 -30 -31
leaf_value=-0.026362531939065327 0.023516481029138361 -0.0069015764988064722 -0.011698483488339271 0.0028786498083653747 -0.01546360416753869 -0.0085700927767211402 -0.0018397639364756753 0.0045698049584708298 -0.0014504633426099163 0.0067437927420233804 0.006655820126974063 -0.035454517157832911 -0.00084250222876776923 0.0033073118715565616 0.0062860112410808647 0.017957076476501365 -0.029329058881381067 -0.017164662071981623 -0.0060188879911738692 0.02390776864212079 -0.012283228008590351 0.083705635654990215 0.011049784951210636 0.02286424766919614 -0.021438724773549953 0.0045844617093737427 0.013200829504003517 -0.017402390291182259 -0.00028443252820836468 -0.014577937805871501
leaf_weight=823.6268752515316 469.53042915463448 382.29053498059511 722.22625761479139 370.55498363077641 459.80613884329796 762.63670980930328 795.86318231374025 1780.9773813337088 1073.3651247471571 1081.353787869215 743.11852589249611 365.9380569383502 1856.0799830034375 285.32086428999901 355.95656883716583 1744.2471969425678 214.31873206794262 471.73549901694059 1328.6538070067763 87.802616819739342 53.126790806651115 14.09073379635811 372.82873271405697 75.546792984008789 3.4763407558202735 418.29922717809677 1510.1796438544989 566.30483162403107 732.48989036679268 185.69670090824366
leaf_count=10058 1991 2641 7021 2150 3970 5526 6288 11648 7242 6247 3618 4880 12128 1329 1743 8219 2345 4247 11081 414 313 79 2186 427 20 2228 7816 5757 4261 2127
internal_value=-9.52673e-05 0.00597865 -0.0146023 0.0105905 -0.0108049 0.000336217 -0.00807205 0.00272727 0.00381845 0.00729516 0.0142675 -0.0271906 -0.00309297 0.0159522 0.0144634 0.015979 -0.0163621 -0.0102666 -0.00844709 0.00847882 0.0062773 0.0121359 0.0149202 0.0304172 0.0628987 0.0099694 0.0113319 -0.0206768 0.00390556 -0.0241944
internal_weight=20107.4 14173.3 5934.17 7798.85 4558.91 6374.42 3056.06 3755.7 3373.41 4112.88 3685.98 1375.26 2618.72 2855.06 2385.52 2100.2 1502.85 2260.2 1788.46 830.921 2300.05 519.069 465.943 93.1139 17.5671 2299.03 1928.48 780.624 1813.84 1009.32
internal_count=140000 82226 57774 40016 40709 42210 25586 24556 21915 22702 17314 17065 17654 13282 11291 9962 15123 19298 15051 4032 14673 3025 2712 526 99 12194 10044 8102 10508 12185
is_linear=0
shrinkage=0.05


Tree=24
num_leaves=31
num_cat=0
split_feature=9 2 3 5 9 4 3 8 8 9 7 9 5 7 8 7 7 0 5 0 7 0 8 7 9 0 5 8 0 0
split_gain=645.732 135.005 105.933 23.7643 23.4259 23.2534 22.8626 16.4155 16.0612 15.0836 14.0667 13.559 13.3753 12.5888 11.154 10.9879 10.8806 10.5913 10.2276 9.66467 9.30449 8.86894 8.79489 8.76913 8.50599 9.30424 11.9844 12.5684 10.0932 8.67389
threshold=11.760000000000002 40877.000000000007 5139.0000000000009 62164.000000000007 6.9400000000000004 12025.000000000002 1996.0000000000002 28012.500000000004 7687.5000000000009 8.4350000000000023 22.155000000000005 12.785000000000002 62164.000000000007 23.955000000000002 4987.5000000000009 17.005000000000006 12.285000000000002 65005.000000000007 35251.000000000007 48000.500000000007 9.5050000000000008 341000.00000000006 3012.5000000000005 26.425000000000004 13.830000000000002 50000.200000000004 62164.000000000007 30012.500000000004 24966.000000000004 27012.000000000004
decision_type=2 2 2 2 2 2 2 2 2 2 2 2 2 2 2 2 2 2 2 2 2 2 2 2 2 2 2 2 2 2
left_child=1 4 6 13 17 7 21 11 20 -5 -10 23 18 -3 -13 -6 -11 -1 -8 -18 -7 22 -2 -4 25 28 27 -27 -12 -26
right_child=2 3 5 9 15 8 12 -9 10 16 24 14 -14 -15 -16 -17 19 -19 -20 -21 -22 -23 -24 -25 29 26 -28 -29 -30 -31
leaf_value=-0.02180130458970414 -0.015507780701866595 -0.006711164136501452 -0.00046397371991401237 -0.020380264782261341 -0.023631750665469502 -0.02489303543871392 0.0056794548934046701 -0.0052357428025740296 -0.0024269275385646045 -0.016380286536446947 0.079282376033966068 -0.0015899546673248909 0.0064579352784594844 0.001253882925877051 0.0090622020470207693 -0.01371387489252774 0.0011317469446412405 -0.033172696195293824 0.01371233796891036 -0.0095076583152825349 -0.0060135438650108603 -0.049728258306362287 0.017379439003566369 0.0088874587997082883 -0.044426892958480263 0.020756383605779045 -0.0014344820170513741 -0.025514012588285218 -0.011085596628110461 0.011450931206368621
leaf_weight=312.18776907026768 20.609430730342865 1880.7013695165515 1059.7260511890054 402.890620701015 534.43816983699799 74.956145115196705 499.31945173442364 374.75231941044331 1403.1302019506693 470.63485531508923 3.1546426117420188 275.87034660577774 1911.2447875589132 673.80868023633957 2250.9820920526981 584.89727273583412 258.43411064893007 595.10006354004145 1919.692002594471 1226.2095541283488 504.53740642219782 5.006238564848899 1494.0453701168299 328.37243483960629 7.0587130635976783 142.36715504527092 261.12783795595169 16.363010093569756 150.45795488357544 431.27397391200066
leaf_count=4144 96 15601 7086 4151 6304 536 2476 2423 9221 4210 19 1776 10057 5044 13165 5844 2132 8091 9266 10415 3257 25 6562 2016 39 851 1699 104 925 2465
internal_value=-9.32672e-05 -0.0124308 0.00642519 -0.00795144 -0.023289 0.00240106 0.0114359 0.00476136 -0.00098022 -0.0115709 0.000813582 0.00571832 0.0095842 -0.00461021 0.00789925 -0.0184493 -0.00975566 -0.0292599 0.0120542 -0.00765564 -0.00845556 0.0167124 0.016932 0.00174823 0.0053074 0.00129937 0.00515164 0.0159865 -0.00922977 0.0105511
internal_weight=20073.4 6939.3 13134 4912.68 2026.62 7284.13 5849.92 4289.7 2994.43 2358.17 2414.93 3914.95 4330.26 2554.51 2526.85 1119.34 1955.28 907.288 2419.01 1484.64 579.494 1519.66 1514.65 1388.1 1011.8 573.471 419.858 158.73 153.613 438.333
internal_count=140000 65936 74064 41553 24383 45582 28482 26466 19116 20908 15323 24043 21799 20645 14941 12148 16757 12235 11742 12547 3793 6683 6658 9102 6102 3598 2654 955 944 2504
is_linear=0
shrinkage=0.05


Tree=25
num_leaves=31
num_cat=0
split_feature=9 3 3 9 7 7 5 5 3 8 8 8 7 6 0 2 8 8 9 0 6 9 4 4 0 8 8 6 7 3
split_gain=590.65 149.364 75.8958 31.1358 23.8113 19.2138 16.0022 14.2437 13.2525 12.5758 14.2993 13.4855 13.068 11.9523 11.562 11.5559 11.1279 10.1679 10.0912 9.27419 11.1805 9.00966 8.96509 30.3024 11.8116 11.5023 16.9281 12.4357 10.4263 8.5503
threshold=10.315000000000003 8114.0000000000009 6718.5000000000009 17.915000000000003 14.695000000000002 14.695000000000002 62164.000000000007 62164.000000000007 4795.5000000000009 4987.5000000000009 24012.500000000004 17012.500000000004 24.405000000000005 7808.0000000000009 64000.500000000007 40877.000000000007 19212.500000000004 28012.500000000004 11.510000000000002 90003.000000000015 57931.000000000007 12.640000000000002 8797.5000000000018 8453.0000000000018 40004.000000000007 12012.500000000002 9012.5000000000018 22175.000000000004 16.235000000000003 201.50000000000003
decision_type=2 2 2 2 2 2 2 2 2 2 2 2 2 2 2 2 2 2 2 2 2 2 2 2 2 2 2 2 2 2
left_child=2 3 8 9 13 15 22 29 -1 -2 11 12 -11 16 18 -4 -3 -7 -15 20 -13 -8 23 -6 28 26 -25 -28 -24 -5
right_child=1 4 5 7 6 17 21 -9 -10 10 -12 19 -14 14 -16 -17 -18 -19 -20 -21 -22 -23 24 25 -26 -27 27 -29 -30 -31
leaf_value=-0.022706587367439812 -0.0010890864663414478 -0.01782541861277856 -0.02608434960423674 0.035188274590623278 0.0034628155915809459 -0.0077438551098146617 -0.0044910997430120721 0.0095981412234655023 -0.034100249244340908 0.0041203239606355073 0.0022357396422549919 0.025727128945482708 0.011671768750529344 -0.0090920855791541064 -0.0065493063845424018 -0.014087955265219415 0.0071719312061469288 -0.021471020921823215 0.0042474413465196951 0.0046395494905861661 0.01267089199312268 0.0016628007665113577 0.021817397741224646 0.021566277998239555 0.0043588544507120108 0.0054019028768798301 -0.0038641922554889935 0.070559819094377835 -0.0068828345535630123 0.015685264864598685
leaf_weight=969.8904056251049 445.24474108219147 266.27560594677925 248.51808399707079 58.123069018125534 836.05631086230278 1993.6205679774284 1240.9428741335869 1422.0404751002789 346.35966070741415 1383.7815942913294 921.91218735277653 239.80859085917473 977.70441284775734 182.22138103842735 1103.4733990877867 1044.2400653287768 53.45939739048481 144.69018837064505 638.76028976589441 197.66294486820698 518.48719200491905 1142.2189674824476 34.066630207002163 109.10764642804861 1281.6887171417475 55.710882157087326 6.6627192497253409 35.619940057396889 445.11092039942741 1696.4664580374956
leaf_count=12185 2645 1973 2980 235 5202 18101 9255 6776 4880 7567 5135 1267 4998 1513 8219 9779 388 1349 4401 1102 2709 7285 225 679 8171 337 40 213 2809 7582
internal_value=-9.1198e-05 0.00469147 -0.0154977 0.0094959 -0.000390862 -0.011582 0.00147076 0.0133172 -0.0257047 0.0069047 0.00774426 0.00927507 0.00724678 -0.00469378 -0.00320645 -0.0163941 -0.0136459 -0.00867271 0.00128666 0.0142855 0.0167999 -0.00154161 0.00403099 0.0077042 0.00185495 0.0248264 0.0319745 0.0588324 -0.00484242 0.0163313
internal_weight=20039.9 15292.6 4747.32 7861.23 7431.38 3431.07 5187.19 3176.63 1316.25 4684.6 4239.36 3317.44 2361.49 2244.19 1924.46 1292.76 319.735 2138.31 820.982 955.959 758.296 2383.16 2804.02 1043.16 1760.87 207.101 151.39 42.2827 479.178 1754.59
internal_count=140000 90726 49274 40016 50710 32209 34216 14593 17065 25423 22778 17643 12565 16494 14133 12759 2361 19450 5914 5078 3976 16540 17676 6471 11205 1269 932 253 3034 7817
is_linear=0
shrinkage=0.05


Tree=26
num_leaves=31
num_cat=0
split_feature=9 3 3 3 7 7 8 7 8 1 0 3 9 2 4 0 4 7 8 5 0 6 9 4 4 0 8 7 4 4
split_gain=538.234 134.061 71.7858 28.2461 21.623 17.8694 15.4567 14.3404 15.4291 18.004 14.1874 12.8822 11.672 10.9636 10.6027 10.3811 10.3564 9.89423 9.86722 9.80245 9.23838 8.77482 8.5661 8.56093 15.9919 10.5233 9.87396 9.15832 8.36036 25.2672
threshold=10.315000000000003 8114.0000000000009 6718.5000000000009 2751.5000000000005 18.895000000000003 14.695000000000002 5612.5000000000009 10.015000000000002 24012.500000000004 70000.000000000015 88010.000000000015 4795.5000000000009 12.640000000000002 40877.000000000007 12025.000000000002 88010.000000000015 11428.000000000002 29.425000000000004 3012.5000000000005 62164.000000000007 80002.000000000015 958.00000000000011 12.785000000000002 10102.000000000002 8224.5000000000018 30009.500000000004 20812.500000000004 15.085000000000003 10102.000000000002 8453.0000000000018
decision_type=2 2 2 2 2 2 2 2 2 2 2 2 2 2 2 2 2 2 2 2 2 2 2 2 2 2 2 2 2 2
left_child=2 3 11 15 6 13 -3 16 9 -9 12 -1 28 -4 22 20 18 21 -5 -7 -2 -17 -6 24 26 -26 -11 -28 29 -8
right_child=1 4 5 7 14 19 10 8 -10 23 -12 -13 -14 -15 -16 17 -18 -19 -20 -21 -22 -23 -24 -25 25 -27 27 -29 -30 -31
leaf_value=-0.021989640667940017 0.014117504936546369 -0.01116535441507781 -0.025328981943293433 -0.030378677593651537 0.0019415048503583919 -0.0048198855519023679 -0.0058087233448477008 0.01282280404692435 0.0021800787422628274 0.0009433727481171412 -0.0065149466684256046 -0.033371466959206009 0.0048400895223465485 -0.01353072368770014 -0.00090075385256226754 -0.032976347235481381 -0.0071440072412787383 0.027479723956299509 0.0083253973941233676 -0.011614257828644739 0.02810324880466164 0.0063321689556907791 0.0082298614802157905 0.0028107664196515923 0.026829747316097288 0.01073511366276687 -0.029128430131707475 0.055010019367159116 -0.0066679799370066477 0.019502731656770484
leaf_weight=951.90239823609591 1866.423180013895 519.0848607942462 243.26850721985102 17.482082337141037 1382.1857174932957 1038.1371713206172 308.51579568535089 1833.011978790164 963.04763801395893 414.7645238339901 1053.0138869658113 336.48081314563751 907.5819019973278 1033.1708563640714 1607.290459536016 14.609050974249838 291.34598521888256 55.26468189060688 283.6767859607935 1086.3781886249781 126.05125470459461 503.68987303972244 890.45833079516888 1036.3067965507507 149.84430335462093 315.19747273623943 4.0934508293867138 15.407606378197668 615.13291118294001 144.90653969347477
leaf_count=12185 8318 3894 2980 114 9341 9089 2313 9341 5244 2215 7743 4880 5783 9779 10680 68 1736 246 1639 10361 567 2342 5192 5613 790 1680 23 80 4694 1070
internal_value=-8.90993e-05 0.00444829 -0.0149111 0.00898677 -0.000372491 -0.0111035 -0.00319342 0.0069099 0.00782815 0.00927148 -0.00182733 -0.0249622 0.000670538 -0.0157793 0.00220728 0.013296 -0.000423184 0.00736859 0.00607865 -0.00829421 0.0150023 0.0052242 0.00440538 0.00590841 0.00947794 0.0159211 0.00257818 0.0373486 -0.00287089 0.00228041
internal_weight=20007.7 15318.4 4689.34 7890.22 7428.17 3400.95 3548.24 5324.18 4731.67 3768.63 3029.15 1288.38 1976.14 1276.44 3879.93 2566.04 592.505 573.564 301.159 2124.52 1992.47 518.299 2272.64 1935.61 899.307 465.042 434.266 19.5011 1068.56 453.422
internal_count=140000 90726 49274 40016 50710 32209 25497 28475 24986 19742 21603 17065 13860 12759 25213 11541 3489 2656 1753 19450 8885 2410 14533 10401 4788 2470 2318 103 8077 3383
is_linear=0
shrinkage=0.05


Tree=27
num_leaves=31
num_cat=0
split_feature=9 3 3 3 5 7 7 7 0 8 8 1 2 8 7 8 4 8 0 8 4 4 7 5 3 7 0 8 9 0
split_gain=490.343 120.348 67.8002 26.0759 20.4351 16.6 15.8299 14.3892 12.6315 12.3355 12.0274 11.8778 10.3864 9.92703 10.7828 9.44321 9.32435 8.76249 9.58624 10.7842 10.4139 12.0882 8.13188 8.09802 8.01945 7.96106 7.8714 7.86929 7.85672 8.22765
threshold=10.315000000000003 8114.0000000000009 6718.5000000000009 1996.0000000000002 62164.000000000007 14.695000000000002 23.955000000000002 17.765000000000004 72004.500000000015 7687.5000000000009 24012.500000000004 70000.000000000015 40877.000000000007 32012.500000000004 24.885000000000002 28012.500000000004 10102.000000000002 5612.5000000000009 93016.500000000015 13562.500000000002 10102.000000000002 8453.0000000000018 13.495000000000003 62164.000000000007 4795.5000000000009 37.705000000000005 341000.00000000006 3012.5000000000005 11.510000000000002 20010.000000000004
decision_type=2 2 2 2 2 2 2 2 2 2 2 2 2 2 2 2 2 2 2 2 2 2 2 2 2 2 2 2 2 2
left_child=2 3 8 26 9 12 23 17 -1 22 11 -8 -4 14 16 -7 -11 -6 19 20 21 -19 28 -5 -10 -13 27 -2 -3 -30
right_child=1 4 5 6 7 15 10 -9 24 13 -12 25 -14 -15 -16 -17 -18 18 -20 -21 -22 -23 -24 -25 -26 -27 -28 -29 29 -31
leaf_value=-0.01852898503118448 -0.016064826153436847 -0.023366780885034688 -0.024582573271497109 0.0070551551197982664 -0.01840907077685194 -0.0070346669742088145 0.015041695862274463 -0.00046477541901668578 -0.02520445712667187 0.0063194956638851097 0.003259466751852319 0.0089660690977821332 -0.012990442394884156 -0.009650231056712236 0.009232834190240239 -0.020414324608662722 -0.00056460455532330678 -0.0073762956275724009 -0.011117123698466508 0.0035049570290581243 -0.01566572408405879 0.024255307784807494 0.00028676635678484872 0.0023327136351297857 -0.036857276918377695 -0.0072675633136245242 -0.048742896273354271 0.014974200272443703 0.027212679590665409 -0.0074019210931091043
leaf_weight=549.12036193907261 20.699789226055145 74.232813268899918 238.25175921618938 2050.2994440495968 152.86778050661087 1969.9576798379421 1180.614468768239 1943.6461524739861 503.78628505021334 862.03906738758087 530.91890580952168 906.89524792134762 1022.6094295606017 132.49862886220217 807.62588800489902 141.33906767517328 1145.5385432317853 105.54181618243456 497.01434303075075 396.42287634313107 208.8651934787631 42.312493376433849 803.61986629664898 1629.0829668194056 208.85642398893833 82.3836360424757 4.9272924214601508 1511.7479790747166 18.524222075939178 234.32530482858419
leaf_count=7262 96 645 2980 10600 1234 18101 5727 13347 6660 5557 2737 4664 9779 873 4858 1349 7663 800 3836 2956 1610 317 5240 9185 3143 420 25 6562 122 1652
internal_value=-8.69206e-05 0.00421819 -0.0143409 0.00850657 -0.000354643 -0.0106414 0.00709804 -0.0032503 -0.0242281 0.00202148 0.010005 0.0116554 -0.0151809 0.00372457 0.00435406 -0.00793036 0.00239138 -0.00710915 -0.00572741 -0.00217062 -0.00847789 0.00167594 -0.0024184 0.00496425 -0.0286196 0.00761419 0.0143521 0.0145549 -0.00906483 -0.00486599
internal_weight=19976.6 15342.6 4633.92 7917.57 7425.07 3372.16 6380.19 3346.67 1261.76 4078.4 2700.81 2169.89 1260.86 2947.7 2815.2 2111.3 2007.58 1403.02 1250.16 753.142 356.72 147.854 1130.7 3679.38 712.643 989.279 1537.38 1532.45 327.082 252.85
internal_count=140000 90726 49274 40016 50710 32209 33333 24100 17065 26610 13548 10811 12759 18951 18078 19450 13220 10753 9519 5683 2727 1117 7659 19785 9803 5084 6683 6658 2419 1774
is_linear=0
shrinkage=0.05


Tree=28
num_leaves=31
num_cat=0
split_feature=9 3 3 9 9 3 0 7 4 8 7 7 8 4 5 0 0 5 5 8 6 8 8 7 6 4 0 8 7 3
split_gain=446.728 87.3436 83.6581 20.8597 20.5857 16.1567 13.7239 12.9915 12.9139 12.886 12.8278 12.6918 12.5594 12.3878 10.5455 10.2109 9.91282 9.8296 14.1849 9.67259 9.32571 8.94978 9.02704 8.93008 9.30174 10.4436 8.88958 8.81614 9.46618 9.05092
threshold=11.105000000000002 5139.0000000000009 6718.5000000000009 8.4350000000000023 12.785000000000002 882.00000000000011 160150.00000000003 15.475000000000003 12025.000000000002 4012.5000000000005 23.955000000000002 24.405000000000005 28012.500000000004 7583.5000000000009 62164.000000000007 170021.00000000003 72004.500000000015 62164.000000000007 35251.000000000007 7012.5000000000009 7808.0000000000009 7012.5000000000009 33437.500000000007 27.565000000000001 4737.0000000000009 29730.000000000004 35000.500000000007 2412.5000000000005 23.955000000000002 8319.5000000000018
decision_type=2 2 2 2 2 2 2 2 2 2 2 2 2 2 2 2 2 2 2 2 2 2 2 2 2 2 2 2 2 2
left_child=2 5 11 14 7 -2 9 -3 12 -7 15 16 20 -8 -4 19 -1 18 -11 -5 27 -9 -23 24 25 26 -20 -6 -29 -30
right_child=1 4 3 10 8 6 13 21 -10 17 -12 -13 -14 -15 -16 -17 -18 -19 23 -21 -22 22 -24 -25 -26 -27 -28 28 29 -31
leaf_value=-0.019885197383768722 0.016930826024018578 -0.0057374212509748992 -0.009325238425880988 -0.013872489853541404 -0.021720985036063033 -0.0018645460199416205 -0.035522729943078001 -0.0049422811697203764 0.00035039210014400457 0.0043774394217401423 -0.00091469106077557731 -0.012146025873957873 -0.004952939829755823 0.0005723671874049215 -0.017934587187756531 -0.02366161900109804 -0.029851690454534091 0.0068948691129415499 -0.012638249156466675 -0.0057514684481457133 0.0079470413003017697 0.0031643923911063238 -0.01141503945110804 0.017972078511367822 0.0096488891599068507 0.047239447116404348 0.022079388381049475 -0.0034968607623403407 0.023863482520957938 -0.010507188660298344
